digraph Tree {
node [shape=box, style="filled, rounded", color="black", fontname="helvetica"] ;
edge [fontname="helvetica"] ;
0 [label=<num__age &le; 48.5<br/>gini = 0.258<br/>samples = 2968<br/>value = [2517, 451]>, fillcolor="#ea985c"] ;
1 [label=<num__Systolic BP &le; 192.0<br/>gini = 0.137<br/>samples = 1468<br/>value = [1359, 109]>, fillcolor="#e78b49"] ;
0 -> 1 [labeldistance=2.5, labelangle=45, headlabel="True"] ;
2 [label=<num__Systolic BP &le; 136.75<br/>gini = 0.133<br/>samples = 1462<br/>value = [1357.0, 105.0]>, fillcolor="#e78b48"] ;
1 -> 2 ;
3 [label=<num__tot cholesterol &le; 299.5<br/>gini = 0.107<br/>samples = 1164<br/>value = [1098, 66]>, fillcolor="#e78945"] ;
2 -> 3 ;
4 [label=<num__BMI &le; 38.749<br/>gini = 0.096<br/>samples = 1108<br/>value = [1052.0, 56.0]>, fillcolor="#e68844"] ;
3 -> 4 ;
5 [label=<num__Diastolic BP &le; 96.75<br/>gini = 0.093<br/>samples = 1104<br/>value = [1050, 54]>, fillcolor="#e68743"] ;
4 -> 5 ;
6 [label=<num__glucose &le; 121.0<br/>gini = 0.09<br/>samples = 1098<br/>value = [1046, 52]>, fillcolor="#e68743"] ;
5 -> 6 ;
7 [label=<num__cigsPerDay &le; 9.5<br/>gini = 0.087<br/>samples = 1091<br/>value = [1041, 50]>, fillcolor="#e68743"] ;
6 -> 7 ;
8 [label=<num__Systolic BP &le; 100.25<br/>gini = 0.057<br/>samples = 609<br/>value = [591, 18]>, fillcolor="#e6853f"] ;
7 -> 8 ;
9 [label=<num__BMI &le; 24.81<br/>gini = 0.278<br/>samples = 18<br/>value = [15, 3]>, fillcolor="#ea9a61"] ;
8 -> 9 ;
10 [label=<gini = 0.0<br/>samples = 13<br/>value = [13, 0]>, fillcolor="#e58139"] ;
9 -> 10 ;
11 [label=<num__glucose &le; 79.0<br/>gini = 0.48<br/>samples = 5<br/>value = [2, 3]>, fillcolor="#bddef6"] ;
9 -> 11 ;
12 [label=<gini = 0.0<br/>samples = 3<br/>value = [0, 3]>, fillcolor="#399de5"] ;
11 -> 12 ;
13 [label=<gini = 0.0<br/>samples = 2<br/>value = [2, 0]>, fillcolor="#e58139"] ;
11 -> 13 ;
14 [label=<num__Diastolic BP &le; 80.75<br/>gini = 0.049<br/>samples = 591<br/>value = [576, 15]>, fillcolor="#e6843e"] ;
8 -> 14 ;
15 [label=<num__glucose &le; 75.5<br/>gini = 0.032<br/>samples = 372<br/>value = [366, 6]>, fillcolor="#e5833c"] ;
14 -> 15 ;
16 [label=<num__heartRate &le; 90.5<br/>gini = 0.072<br/>samples = 134<br/>value = [129, 5]>, fillcolor="#e68641"] ;
15 -> 16 ;
17 [label=<num__tot cholesterol &le; 265.5<br/>gini = 0.059<br/>samples = 131<br/>value = [127, 4]>, fillcolor="#e6853f"] ;
16 -> 17 ;
18 [label=<num__cigsPerDay &le; 8.0<br/>gini = 0.048<br/>samples = 123<br/>value = [120, 3]>, fillcolor="#e6843e"] ;
17 -> 18 ;
19 [label=<num__age &le; 41.5<br/>gini = 0.034<br/>samples = 114<br/>value = [112, 2]>, fillcolor="#e5833d"] ;
18 -> 19 ;
20 [label=<gini = 0.0<br/>samples = 66<br/>value = [66, 0]>, fillcolor="#e58139"] ;
19 -> 20 ;
21 [label=<num__tot cholesterol &le; 171.0<br/>gini = 0.08<br/>samples = 48<br/>value = [46, 2]>, fillcolor="#e68642"] ;
19 -> 21 ;
22 [label=<num__currentSmoker &le; 0.5<br/>gini = 0.444<br/>samples = 3<br/>value = [2, 1]>, fillcolor="#f2c09c"] ;
21 -> 22 ;
23 [label=<gini = 0.0<br/>samples = 1<br/>value = [0, 1]>, fillcolor="#399de5"] ;
22 -> 23 ;
24 [label=<gini = 0.0<br/>samples = 2<br/>value = [2, 0]>, fillcolor="#e58139"] ;
22 -> 24 ;
25 [label=<num__Systolic BP &le; 107.75<br/>gini = 0.043<br/>samples = 45<br/>value = [44, 1]>, fillcolor="#e6843d"] ;
21 -> 25 ;
26 [label=<num__Systolic BP &le; 107.25<br/>gini = 0.245<br/>samples = 7<br/>value = [6, 1]>, fillcolor="#e9965a"] ;
25 -> 26 ;
27 [label=<gini = 0.0<br/>samples = 5<br/>value = [5, 0]>, fillcolor="#e58139"] ;
26 -> 27 ;
28 [label=<num__age &le; 44.5<br/>gini = 0.5<br/>samples = 2<br/>value = [1, 1]>, fillcolor="#ffffff"] ;
26 -> 28 ;
29 [label=<gini = 0.0<br/>samples = 1<br/>value = [0, 1]>, fillcolor="#399de5"] ;
28 -> 29 ;
30 [label=<gini = 0.0<br/>samples = 1<br/>value = [1, 0]>, fillcolor="#e58139"] ;
28 -> 30 ;
31 [label=<gini = 0.0<br/>samples = 38<br/>value = [38, 0]>, fillcolor="#e58139"] ;
25 -> 31 ;
32 [label=<num__glucose &le; 74.0<br/>gini = 0.198<br/>samples = 9<br/>value = [8, 1]>, fillcolor="#e89152"] ;
18 -> 32 ;
33 [label=<gini = 0.0<br/>samples = 8<br/>value = [8, 0]>, fillcolor="#e58139"] ;
32 -> 33 ;
34 [label=<gini = 0.0<br/>samples = 1<br/>value = [0, 1]>, fillcolor="#399de5"] ;
32 -> 34 ;
35 [label=<num__education &le; 3.5<br/>gini = 0.219<br/>samples = 8<br/>value = [7, 1]>, fillcolor="#e99355"] ;
17 -> 35 ;
36 [label=<gini = 0.0<br/>samples = 7<br/>value = [7, 0]>, fillcolor="#e58139"] ;
35 -> 36 ;
37 [label=<gini = 0.0<br/>samples = 1<br/>value = [0, 1]>, fillcolor="#399de5"] ;
35 -> 37 ;
38 [label=<num__education &le; 2.5<br/>gini = 0.444<br/>samples = 3<br/>value = [2, 1]>, fillcolor="#f2c09c"] ;
16 -> 38 ;
39 [label=<gini = 0.0<br/>samples = 2<br/>value = [2, 0]>, fillcolor="#e58139"] ;
38 -> 39 ;
40 [label=<gini = 0.0<br/>samples = 1<br/>value = [0, 1]>, fillcolor="#399de5"] ;
38 -> 40 ;
41 [label=<num__BMI &le; 19.17<br/>gini = 0.008<br/>samples = 238<br/>value = [237, 1]>, fillcolor="#e5823a"] ;
15 -> 41 ;
42 [label=<num__currentSmoker &le; 0.5<br/>gini = 0.18<br/>samples = 10<br/>value = [9, 1]>, fillcolor="#e88f4f"] ;
41 -> 42 ;
43 [label=<gini = 0.0<br/>samples = 9<br/>value = [9, 0]>, fillcolor="#e58139"] ;
42 -> 43 ;
44 [label=<gini = 0.0<br/>samples = 1<br/>value = [0, 1]>, fillcolor="#399de5"] ;
42 -> 44 ;
45 [label=<gini = 0.0<br/>samples = 228<br/>value = [228, 0]>, fillcolor="#e58139"] ;
41 -> 45 ;
46 [label=<num__BMI &le; 20.96<br/>gini = 0.079<br/>samples = 219<br/>value = [210, 9]>, fillcolor="#e68641"] ;
14 -> 46 ;
47 [label=<num__glucose &le; 77.5<br/>gini = 0.32<br/>samples = 10<br/>value = [8, 2]>, fillcolor="#eca06a"] ;
46 -> 47 ;
48 [label=<gini = 0.0<br/>samples = 7<br/>value = [7, 0]>, fillcolor="#e58139"] ;
47 -> 48 ;
49 [label=<num__cigsPerDay &le; 3.5<br/>gini = 0.444<br/>samples = 3<br/>value = [1, 2]>, fillcolor="#9ccef2"] ;
47 -> 49 ;
50 [label=<gini = 0.0<br/>samples = 2<br/>value = [0, 2]>, fillcolor="#399de5"] ;
49 -> 50 ;
51 [label=<gini = 0.0<br/>samples = 1<br/>value = [1, 0]>, fillcolor="#e58139"] ;
49 -> 51 ;
52 [label=<num__age &le; 44.5<br/>gini = 0.065<br/>samples = 209<br/>value = [202, 7]>, fillcolor="#e68540"] ;
46 -> 52 ;
53 [label=<num__Systolic BP &le; 118.75<br/>gini = 0.029<br/>samples = 136<br/>value = [134, 2]>, fillcolor="#e5833c"] ;
52 -> 53 ;
54 [label=<num__Systolic BP &le; 118.25<br/>gini = 0.147<br/>samples = 25<br/>value = [23, 2]>, fillcolor="#e78c4a"] ;
53 -> 54 ;
55 [label=<num__Diastolic BP &le; 81.5<br/>gini = 0.08<br/>samples = 24<br/>value = [23, 1]>, fillcolor="#e68642"] ;
54 -> 55 ;
56 [label=<gini = 0.0<br/>samples = 1<br/>value = [0, 1]>, fillcolor="#399de5"] ;
55 -> 56 ;
57 [label=<gini = 0.0<br/>samples = 23<br/>value = [23, 0]>, fillcolor="#e58139"] ;
55 -> 57 ;
58 [label=<gini = 0.0<br/>samples = 1<br/>value = [0, 1]>, fillcolor="#399de5"] ;
54 -> 58 ;
59 [label=<gini = 0.0<br/>samples = 111<br/>value = [111, 0]>, fillcolor="#e58139"] ;
53 -> 59 ;
60 [label=<num__glucose &le; 77.5<br/>gini = 0.128<br/>samples = 73<br/>value = [68, 5]>, fillcolor="#e78a48"] ;
52 -> 60 ;
61 [label=<gini = 0.0<br/>samples = 25<br/>value = [25, 0]>, fillcolor="#e58139"] ;
60 -> 61 ;
62 [label=<num__Systolic BP &le; 109.5<br/>gini = 0.187<br/>samples = 48<br/>value = [43, 5]>, fillcolor="#e89050"] ;
60 -> 62 ;
63 [label=<num__Diastolic BP &le; 83.5<br/>gini = 0.5<br/>samples = 2<br/>value = [1, 1]>, fillcolor="#ffffff"] ;
62 -> 63 ;
64 [label=<gini = 0.0<br/>samples = 1<br/>value = [0, 1]>, fillcolor="#399de5"] ;
63 -> 64 ;
65 [label=<gini = 0.0<br/>samples = 1<br/>value = [1, 0]>, fillcolor="#e58139"] ;
63 -> 65 ;
66 [label=<num__Systolic BP &le; 125.5<br/>gini = 0.159<br/>samples = 46<br/>value = [42, 4]>, fillcolor="#e78d4c"] ;
62 -> 66 ;
67 [label=<gini = 0.0<br/>samples = 20<br/>value = [20, 0]>, fillcolor="#e58139"] ;
66 -> 67 ;
68 [label=<num__Systolic BP &le; 126.5<br/>gini = 0.26<br/>samples = 26<br/>value = [22, 4]>, fillcolor="#ea985d"] ;
66 -> 68 ;
69 [label=<gini = 0.0<br/>samples = 1<br/>value = [0, 1]>, fillcolor="#399de5"] ;
68 -> 69 ;
70 [label=<num__education &le; 1.5<br/>gini = 0.211<br/>samples = 25<br/>value = [22, 3]>, fillcolor="#e99254"] ;
68 -> 70 ;
71 [label=<gini = 0.0<br/>samples = 12<br/>value = [12, 0]>, fillcolor="#e58139"] ;
70 -> 71 ;
72 [label=<num__prevalentHyp &le; 0.5<br/>gini = 0.355<br/>samples = 13<br/>value = [10, 3]>, fillcolor="#eda774"] ;
70 -> 72 ;
73 [label=<num__age &le; 46.5<br/>gini = 0.278<br/>samples = 12<br/>value = [10, 2]>, fillcolor="#ea9a61"] ;
72 -> 73 ;
74 [label=<num__tot cholesterol &le; 241.5<br/>gini = 0.48<br/>samples = 5<br/>value = [3, 2]>, fillcolor="#f6d5bd"] ;
73 -> 74 ;
75 [label=<gini = 0.0<br/>samples = 3<br/>value = [3, 0]>, fillcolor="#e58139"] ;
74 -> 75 ;
76 [label=<gini = 0.0<br/>samples = 2<br/>value = [0, 2]>, fillcolor="#399de5"] ;
74 -> 76 ;
77 [label=<gini = 0.0<br/>samples = 7<br/>value = [7, 0]>, fillcolor="#e58139"] ;
73 -> 77 ;
78 [label=<gini = 0.0<br/>samples = 1<br/>value = [0, 1]>, fillcolor="#399de5"] ;
72 -> 78 ;
79 [label=<num__Systolic BP &le; 122.25<br/>gini = 0.124<br/>samples = 482<br/>value = [450, 32]>, fillcolor="#e78a47"] ;
7 -> 79 ;
80 [label=<num__heartRate &le; 67.5<br/>gini = 0.164<br/>samples = 311<br/>value = [283, 28]>, fillcolor="#e88d4d"] ;
79 -> 80 ;
81 [label=<num__Diastolic BP &le; 75.5<br/>gini = 0.051<br/>samples = 77<br/>value = [75, 2]>, fillcolor="#e6843e"] ;
80 -> 81 ;
82 [label=<gini = 0.0<br/>samples = 52<br/>value = [52, 0]>, fillcolor="#e58139"] ;
81 -> 82 ;
83 [label=<num__Systolic BP &le; 111.25<br/>gini = 0.147<br/>samples = 25<br/>value = [23, 2]>, fillcolor="#e78c4a"] ;
81 -> 83 ;
84 [label=<num__Systolic BP &le; 109.5<br/>gini = 0.48<br/>samples = 5<br/>value = [3, 2]>, fillcolor="#f6d5bd"] ;
83 -> 84 ;
85 [label=<gini = 0.0<br/>samples = 3<br/>value = [3, 0]>, fillcolor="#e58139"] ;
84 -> 85 ;
86 [label=<gini = 0.0<br/>samples = 2<br/>value = [0, 2]>, fillcolor="#399de5"] ;
84 -> 86 ;
87 [label=<gini = 0.0<br/>samples = 20<br/>value = [20, 0]>, fillcolor="#e58139"] ;
83 -> 87 ;
88 [label=<num__BMI &le; 18.24<br/>gini = 0.198<br/>samples = 234<br/>value = [208, 26]>, fillcolor="#e89152"] ;
80 -> 88 ;
89 [label=<num__tot cholesterol &le; 182.5<br/>gini = 0.48<br/>samples = 5<br/>value = [3, 2]>, fillcolor="#f6d5bd"] ;
88 -> 89 ;
90 [label=<gini = 0.0<br/>samples = 2<br/>value = [0, 2]>, fillcolor="#399de5"] ;
89 -> 90 ;
91 [label=<gini = 0.0<br/>samples = 3<br/>value = [3, 0]>, fillcolor="#e58139"] ;
89 -> 91 ;
92 [label=<num__tot cholesterol &le; 228.5<br/>gini = 0.188<br/>samples = 229<br/>value = [205, 24]>, fillcolor="#e89050"] ;
88 -> 92 ;
93 [label=<num__tot cholesterol &le; 212.5<br/>gini = 0.136<br/>samples = 136<br/>value = [126, 10]>, fillcolor="#e78b49"] ;
92 -> 93 ;
94 [label=<num__tot cholesterol &le; 209.5<br/>gini = 0.18<br/>samples = 100<br/>value = [90, 10]>, fillcolor="#e88f4f"] ;
93 -> 94 ;
95 [label=<num__tot cholesterol &le; 171.0<br/>gini = 0.113<br/>samples = 83<br/>value = [78, 5]>, fillcolor="#e78946"] ;
94 -> 95 ;
96 [label=<num__education &le; 1.5<br/>gini = 0.266<br/>samples = 19<br/>value = [16, 3]>, fillcolor="#ea995e"] ;
95 -> 96 ;
97 [label=<num__age &le; 46.0<br/>gini = 0.5<br/>samples = 6<br/>value = [3, 3]>, fillcolor="#ffffff"] ;
96 -> 97 ;
98 [label=<num__glucose &le; 90.0<br/>gini = 0.375<br/>samples = 4<br/>value = [3, 1]>, fillcolor="#eeab7b"] ;
97 -> 98 ;
99 [label=<gini = 0.0<br/>samples = 3<br/>value = [3, 0]>, fillcolor="#e58139"] ;
98 -> 99 ;
100 [label=<gini = 0.0<br/>samples = 1<br/>value = [0, 1]>, fillcolor="#399de5"] ;
98 -> 100 ;
101 [label=<gini = 0.0<br/>samples = 2<br/>value = [0, 2]>, fillcolor="#399de5"] ;
97 -> 101 ;
102 [label=<gini = 0.0<br/>samples = 13<br/>value = [13, 0]>, fillcolor="#e58139"] ;
96 -> 102 ;
103 [label=<num__glucose &le; 70.5<br/>gini = 0.061<br/>samples = 64<br/>value = [62, 2]>, fillcolor="#e6853f"] ;
95 -> 103 ;
104 [label=<num__glucose &le; 69.0<br/>gini = 0.208<br/>samples = 17<br/>value = [15, 2]>, fillcolor="#e89253"] ;
103 -> 104 ;
105 [label=<num__BMI &le; 20.05<br/>gini = 0.124<br/>samples = 15<br/>value = [14, 1]>, fillcolor="#e78a47"] ;
104 -> 105 ;
106 [label=<num__age &le; 39.5<br/>gini = 0.5<br/>samples = 2<br/>value = [1, 1]>, fillcolor="#ffffff"] ;
105 -> 106 ;
107 [label=<gini = 0.0<br/>samples = 1<br/>value = [1, 0]>, fillcolor="#e58139"] ;
106 -> 107 ;
108 [label=<gini = 0.0<br/>samples = 1<br/>value = [0, 1]>, fillcolor="#399de5"] ;
106 -> 108 ;
109 [label=<gini = 0.0<br/>samples = 13<br/>value = [13, 0]>, fillcolor="#e58139"] ;
105 -> 109 ;
110 [label=<num__Diastolic BP &le; 72.5<br/>gini = 0.5<br/>samples = 2<br/>value = [1, 1]>, fillcolor="#ffffff"] ;
104 -> 110 ;
111 [label=<gini = 0.0<br/>samples = 1<br/>value = [1, 0]>, fillcolor="#e58139"] ;
110 -> 111 ;
112 [label=<gini = 0.0<br/>samples = 1<br/>value = [0, 1]>, fillcolor="#399de5"] ;
110 -> 112 ;
113 [label=<gini = 0.0<br/>samples = 47<br/>value = [47, 0]>, fillcolor="#e58139"] ;
103 -> 113 ;
114 [label=<num__glucose &le; 76.5<br/>gini = 0.415<br/>samples = 17<br/>value = [12, 5]>, fillcolor="#f0b58b"] ;
94 -> 114 ;
115 [label=<gini = 0.0<br/>samples = 3<br/>value = [0, 3]>, fillcolor="#399de5"] ;
114 -> 115 ;
116 [label=<num__Diastolic BP &le; 66.75<br/>gini = 0.245<br/>samples = 14<br/>value = [12, 2]>, fillcolor="#e9965a"] ;
114 -> 116 ;
117 [label=<gini = 0.0<br/>samples = 1<br/>value = [0, 1]>, fillcolor="#399de5"] ;
116 -> 117 ;
118 [label=<num__heartRate &le; 69.0<br/>gini = 0.142<br/>samples = 13<br/>value = [12, 1]>, fillcolor="#e78c49"] ;
116 -> 118 ;
119 [label=<num__age &le; 35.5<br/>gini = 0.5<br/>samples = 2<br/>value = [1, 1]>, fillcolor="#ffffff"] ;
118 -> 119 ;
120 [label=<gini = 0.0<br/>samples = 1<br/>value = [1, 0]>, fillcolor="#e58139"] ;
119 -> 120 ;
121 [label=<gini = 0.0<br/>samples = 1<br/>value = [0, 1]>, fillcolor="#399de5"] ;
119 -> 121 ;
122 [label=<gini = 0.0<br/>samples = 11<br/>value = [11, 0]>, fillcolor="#e58139"] ;
118 -> 122 ;
123 [label=<gini = 0.0<br/>samples = 36<br/>value = [36, 0]>, fillcolor="#e58139"] ;
93 -> 123 ;
124 [label=<num__glucose &le; 99.5<br/>gini = 0.256<br/>samples = 93<br/>value = [79, 14]>, fillcolor="#ea975c"] ;
92 -> 124 ;
125 [label=<num__glucose &le; 56.0<br/>gini = 0.217<br/>samples = 89<br/>value = [78, 11]>, fillcolor="#e99355"] ;
124 -> 125 ;
126 [label=<gini = 0.0<br/>samples = 1<br/>value = [0, 1]>, fillcolor="#399de5"] ;
125 -> 126 ;
127 [label=<num__Systolic BP &le; 99.0<br/>gini = 0.201<br/>samples = 88<br/>value = [78, 10]>, fillcolor="#e89152"] ;
125 -> 127 ;
128 [label=<num__age &le; 45.0<br/>gini = 0.48<br/>samples = 5<br/>value = [3, 2]>, fillcolor="#f6d5bd"] ;
127 -> 128 ;
129 [label=<gini = 0.0<br/>samples = 3<br/>value = [3, 0]>, fillcolor="#e58139"] ;
128 -> 129 ;
130 [label=<gini = 0.0<br/>samples = 2<br/>value = [0, 2]>, fillcolor="#399de5"] ;
128 -> 130 ;
131 [label=<num__glucose &le; 65.5<br/>gini = 0.174<br/>samples = 83<br/>value = [75, 8]>, fillcolor="#e88e4e"] ;
127 -> 131 ;
132 [label=<num__tot cholesterol &le; 255.0<br/>gini = 0.42<br/>samples = 10<br/>value = [7, 3]>, fillcolor="#f0b78e"] ;
131 -> 132 ;
133 [label=<num__heartRate &le; 72.5<br/>gini = 0.48<br/>samples = 5<br/>value = [2, 3]>, fillcolor="#bddef6"] ;
132 -> 133 ;
134 [label=<gini = 0.0<br/>samples = 2<br/>value = [2, 0]>, fillcolor="#e58139"] ;
133 -> 134 ;
135 [label=<gini = 0.0<br/>samples = 3<br/>value = [0, 3]>, fillcolor="#399de5"] ;
133 -> 135 ;
136 [label=<gini = 0.0<br/>samples = 5<br/>value = [5, 0]>, fillcolor="#e58139"] ;
132 -> 136 ;
137 [label=<num__tot cholesterol &le; 256.5<br/>gini = 0.128<br/>samples = 73<br/>value = [68, 5]>, fillcolor="#e78a48"] ;
131 -> 137 ;
138 [label=<num__Systolic BP &le; 103.5<br/>gini = 0.045<br/>samples = 43<br/>value = [42, 1]>, fillcolor="#e6843e"] ;
137 -> 138 ;
139 [label=<cat__Gender_Female &le; 0.5<br/>gini = 0.375<br/>samples = 4<br/>value = [3, 1]>, fillcolor="#eeab7b"] ;
138 -> 139 ;
140 [label=<gini = 0.0<br/>samples = 1<br/>value = [0, 1]>, fillcolor="#399de5"] ;
139 -> 140 ;
141 [label=<gini = 0.0<br/>samples = 3<br/>value = [3, 0]>, fillcolor="#e58139"] ;
139 -> 141 ;
142 [label=<gini = 0.0<br/>samples = 39<br/>value = [39, 0]>, fillcolor="#e58139"] ;
138 -> 142 ;
143 [label=<num__tot cholesterol &le; 258.0<br/>gini = 0.231<br/>samples = 30<br/>value = [26, 4]>, fillcolor="#e99457"] ;
137 -> 143 ;
144 [label=<gini = 0.0<br/>samples = 1<br/>value = [0, 1]>, fillcolor="#399de5"] ;
143 -> 144 ;
145 [label=<num__Diastolic BP &le; 66.5<br/>gini = 0.185<br/>samples = 29<br/>value = [26, 3]>, fillcolor="#e89050"] ;
143 -> 145 ;
146 [label=<num__cigsPerDay &le; 15.0<br/>gini = 0.5<br/>samples = 2<br/>value = [1, 1]>, fillcolor="#ffffff"] ;
145 -> 146 ;
147 [label=<gini = 0.0<br/>samples = 1<br/>value = [1, 0]>, fillcolor="#e58139"] ;
146 -> 147 ;
148 [label=<gini = 0.0<br/>samples = 1<br/>value = [0, 1]>, fillcolor="#399de5"] ;
146 -> 148 ;
149 [label=<num__heartRate &le; 71.0<br/>gini = 0.137<br/>samples = 27<br/>value = [25, 2]>, fillcolor="#e78b49"] ;
145 -> 149 ;
150 [label=<num__tot cholesterol &le; 274.0<br/>gini = 0.444<br/>samples = 3<br/>value = [2, 1]>, fillcolor="#f2c09c"] ;
149 -> 150 ;
151 [label=<gini = 0.0<br/>samples = 1<br/>value = [0, 1]>, fillcolor="#399de5"] ;
150 -> 151 ;
152 [label=<gini = 0.0<br/>samples = 2<br/>value = [2, 0]>, fillcolor="#e58139"] ;
150 -> 152 ;
153 [label=<num__Systolic BP &le; 120.25<br/>gini = 0.08<br/>samples = 24<br/>value = [23, 1]>, fillcolor="#e68642"] ;
149 -> 153 ;
154 [label=<gini = 0.0<br/>samples = 21<br/>value = [21, 0]>, fillcolor="#e58139"] ;
153 -> 154 ;
155 [label=<num__cigsPerDay &le; 25.0<br/>gini = 0.444<br/>samples = 3<br/>value = [2, 1]>, fillcolor="#f2c09c"] ;
153 -> 155 ;
156 [label=<gini = 0.0<br/>samples = 1<br/>value = [0, 1]>, fillcolor="#399de5"] ;
155 -> 156 ;
157 [label=<gini = 0.0<br/>samples = 2<br/>value = [2, 0]>, fillcolor="#e58139"] ;
155 -> 157 ;
158 [label=<cat__Gender_Male &le; 0.5<br/>gini = 0.375<br/>samples = 4<br/>value = [1, 3]>, fillcolor="#7bbeee"] ;
124 -> 158 ;
159 [label=<gini = 0.0<br/>samples = 1<br/>value = [1, 0]>, fillcolor="#e58139"] ;
158 -> 159 ;
160 [label=<gini = 0.0<br/>samples = 3<br/>value = [0, 3]>, fillcolor="#399de5"] ;
158 -> 160 ;
161 [label=<num__cigsPerDay &le; 39.0<br/>gini = 0.046<br/>samples = 171<br/>value = [167, 4]>, fillcolor="#e6843e"] ;
79 -> 161 ;
162 [label=<num__Diastolic BP &le; 91.75<br/>gini = 0.013<br/>samples = 150<br/>value = [149, 1]>, fillcolor="#e5823a"] ;
161 -> 162 ;
163 [label=<gini = 0.0<br/>samples = 139<br/>value = [139, 0]>, fillcolor="#e58139"] ;
162 -> 163 ;
164 [label=<num__age &le; 38.5<br/>gini = 0.165<br/>samples = 11<br/>value = [10, 1]>, fillcolor="#e88e4d"] ;
162 -> 164 ;
165 [label=<gini = 0.0<br/>samples = 1<br/>value = [0, 1]>, fillcolor="#399de5"] ;
164 -> 165 ;
166 [label=<gini = 0.0<br/>samples = 10<br/>value = [10, 0]>, fillcolor="#e58139"] ;
164 -> 166 ;
167 [label=<num__age &le; 46.5<br/>gini = 0.245<br/>samples = 21<br/>value = [18, 3]>, fillcolor="#e9965a"] ;
161 -> 167 ;
168 [label=<num__Systolic BP &le; 125.5<br/>gini = 0.105<br/>samples = 18<br/>value = [17, 1]>, fillcolor="#e78845"] ;
167 -> 168 ;
169 [label=<num__heartRate &le; 81.5<br/>gini = 0.32<br/>samples = 5<br/>value = [4, 1]>, fillcolor="#eca06a"] ;
168 -> 169 ;
170 [label=<gini = 0.0<br/>samples = 1<br/>value = [0, 1]>, fillcolor="#399de5"] ;
169 -> 170 ;
171 [label=<gini = 0.0<br/>samples = 4<br/>value = [4, 0]>, fillcolor="#e58139"] ;
169 -> 171 ;
172 [label=<gini = 0.0<br/>samples = 13<br/>value = [13, 0]>, fillcolor="#e58139"] ;
168 -> 172 ;
173 [label=<num__cigsPerDay &le; 51.5<br/>gini = 0.444<br/>samples = 3<br/>value = [1, 2]>, fillcolor="#9ccef2"] ;
167 -> 173 ;
174 [label=<gini = 0.0<br/>samples = 2<br/>value = [0, 2]>, fillcolor="#399de5"] ;
173 -> 174 ;
175 [label=<gini = 0.0<br/>samples = 1<br/>value = [1, 0]>, fillcolor="#e58139"] ;
173 -> 175 ;
176 [label=<num__glucose &le; 125.0<br/>gini = 0.408<br/>samples = 7<br/>value = [5, 2]>, fillcolor="#efb388"] ;
6 -> 176 ;
177 [label=<gini = 0.0<br/>samples = 2<br/>value = [0, 2]>, fillcolor="#399de5"] ;
176 -> 177 ;
178 [label=<gini = 0.0<br/>samples = 5<br/>value = [5, 0]>, fillcolor="#e58139"] ;
176 -> 178 ;
179 [label=<num__BMI &le; 28.675<br/>gini = 0.444<br/>samples = 6<br/>value = [4, 2]>, fillcolor="#f2c09c"] ;
5 -> 179 ;
180 [label=<gini = 0.0<br/>samples = 4<br/>value = [4, 0]>, fillcolor="#e58139"] ;
179 -> 180 ;
181 [label=<gini = 0.0<br/>samples = 2<br/>value = [0, 2]>, fillcolor="#399de5"] ;
179 -> 181 ;
182 [label=<num__tot cholesterol &le; 264.0<br/>gini = 0.5<br/>samples = 4<br/>value = [2, 2]>, fillcolor="#ffffff"] ;
4 -> 182 ;
183 [label=<gini = 0.0<br/>samples = 2<br/>value = [0, 2]>, fillcolor="#399de5"] ;
182 -> 183 ;
184 [label=<gini = 0.0<br/>samples = 2<br/>value = [2, 0]>, fillcolor="#e58139"] ;
182 -> 184 ;
185 [label=<num__BMI &le; 28.78<br/>gini = 0.293<br/>samples = 56<br/>value = [46, 10]>, fillcolor="#eb9c64"] ;
3 -> 185 ;
186 [label=<num__Diastolic BP &le; 92.75<br/>gini = 0.223<br/>samples = 47<br/>value = [41.0, 6.0]>, fillcolor="#e99356"] ;
185 -> 186 ;
187 [label=<cat__Gender_Male &le; 0.5<br/>gini = 0.169<br/>samples = 43<br/>value = [39, 4]>, fillcolor="#e88e4d"] ;
186 -> 187 ;
188 [label=<num__glucose &le; 102.0<br/>gini = 0.298<br/>samples = 22<br/>value = [18, 4]>, fillcolor="#eb9d65"] ;
187 -> 188 ;
189 [label=<num__heartRate &le; 69.0<br/>gini = 0.245<br/>samples = 21<br/>value = [18, 3]>, fillcolor="#e9965a"] ;
188 -> 189 ;
190 [label=<num__glucose &le; 76.0<br/>gini = 0.48<br/>samples = 5<br/>value = [3, 2]>, fillcolor="#f6d5bd"] ;
189 -> 190 ;
191 [label=<gini = 0.0<br/>samples = 2<br/>value = [0, 2]>, fillcolor="#399de5"] ;
190 -> 191 ;
192 [label=<gini = 0.0<br/>samples = 3<br/>value = [3, 0]>, fillcolor="#e58139"] ;
190 -> 192 ;
193 [label=<num__Systolic BP &le; 126.0<br/>gini = 0.117<br/>samples = 16<br/>value = [15, 1]>, fillcolor="#e78946"] ;
189 -> 193 ;
194 [label=<gini = 0.0<br/>samples = 13<br/>value = [13, 0]>, fillcolor="#e58139"] ;
193 -> 194 ;
195 [label=<num__BMI &le; 24.865<br/>gini = 0.444<br/>samples = 3<br/>value = [2, 1]>, fillcolor="#f2c09c"] ;
193 -> 195 ;
196 [label=<gini = 0.0<br/>samples = 1<br/>value = [0, 1]>, fillcolor="#399de5"] ;
195 -> 196 ;
197 [label=<gini = 0.0<br/>samples = 2<br/>value = [2, 0]>, fillcolor="#e58139"] ;
195 -> 197 ;
198 [label=<gini = 0.0<br/>samples = 1<br/>value = [0, 1]>, fillcolor="#399de5"] ;
188 -> 198 ;
199 [label=<gini = 0.0<br/>samples = 21<br/>value = [21, 0]>, fillcolor="#e58139"] ;
187 -> 199 ;
200 [label=<num__cigsPerDay &le; 4.0<br/>gini = 0.5<br/>samples = 4<br/>value = [2, 2]>, fillcolor="#ffffff"] ;
186 -> 200 ;
201 [label=<gini = 0.0<br/>samples = 2<br/>value = [0, 2]>, fillcolor="#399de5"] ;
200 -> 201 ;
202 [label=<gini = 0.0<br/>samples = 2<br/>value = [2, 0]>, fillcolor="#e58139"] ;
200 -> 202 ;
203 [label=<num__Systolic BP &le; 118.5<br/>gini = 0.494<br/>samples = 9<br/>value = [5, 4]>, fillcolor="#fae6d7"] ;
185 -> 203 ;
204 [label=<gini = 0.0<br/>samples = 3<br/>value = [0, 3]>, fillcolor="#399de5"] ;
203 -> 204 ;
205 [label=<num__tot cholesterol &le; 329.5<br/>gini = 0.278<br/>samples = 6<br/>value = [5, 1]>, fillcolor="#ea9a61"] ;
203 -> 205 ;
206 [label=<gini = 0.0<br/>samples = 5<br/>value = [5, 0]>, fillcolor="#e58139"] ;
205 -> 206 ;
207 [label=<gini = 0.0<br/>samples = 1<br/>value = [0, 1]>, fillcolor="#399de5"] ;
205 -> 207 ;
208 [label=<num__cigsPerDay &le; 16.5<br/>gini = 0.227<br/>samples = 298<br/>value = [259, 39]>, fillcolor="#e99457"] ;
2 -> 208 ;
209 [label=<num__Systolic BP &le; 137.25<br/>gini = 0.147<br/>samples = 188<br/>value = [173, 15]>, fillcolor="#e78c4a"] ;
208 -> 209 ;
210 [label=<cat__Gender_Male &le; 0.5<br/>gini = 0.355<br/>samples = 13<br/>value = [10, 3]>, fillcolor="#eda774"] ;
209 -> 210 ;
211 [label=<num__Diastolic BP &le; 81.5<br/>gini = 0.5<br/>samples = 6<br/>value = [3, 3]>, fillcolor="#ffffff"] ;
210 -> 211 ;
212 [label=<gini = 0.0<br/>samples = 2<br/>value = [0, 2]>, fillcolor="#399de5"] ;
211 -> 212 ;
213 [label=<num__prevalentHyp &le; 0.5<br/>gini = 0.375<br/>samples = 4<br/>value = [3, 1]>, fillcolor="#eeab7b"] ;
211 -> 213 ;
214 [label=<gini = 0.0<br/>samples = 3<br/>value = [3, 0]>, fillcolor="#e58139"] ;
213 -> 214 ;
215 [label=<gini = 0.0<br/>samples = 1<br/>value = [0, 1]>, fillcolor="#399de5"] ;
213 -> 215 ;
216 [label=<gini = 0.0<br/>samples = 7<br/>value = [7, 0]>, fillcolor="#e58139"] ;
210 -> 216 ;
217 [label=<cat__Gender_Female &le; 0.5<br/>gini = 0.128<br/>samples = 175<br/>value = [163, 12]>, fillcolor="#e78a48"] ;
209 -> 217 ;
218 [label=<num__Diastolic BP &le; 80.25<br/>gini = 0.226<br/>samples = 77<br/>value = [67.0, 10.0]>, fillcolor="#e99457"] ;
217 -> 218 ;
219 [label=<gini = 0.0<br/>samples = 1<br/>value = [0, 1]>, fillcolor="#399de5"] ;
218 -> 219 ;
220 [label=<num__tot cholesterol &le; 256.5<br/>gini = 0.209<br/>samples = 76<br/>value = [67, 9]>, fillcolor="#e89254"] ;
218 -> 220 ;
221 [label=<num__cigsPerDay &le; 2.0<br/>gini = 0.107<br/>samples = 53<br/>value = [50, 3]>, fillcolor="#e78945"] ;
220 -> 221 ;
222 [label=<num__age &le; 47.5<br/>gini = 0.046<br/>samples = 42<br/>value = [41, 1]>, fillcolor="#e6843e"] ;
221 -> 222 ;
223 [label=<gini = 0.0<br/>samples = 35<br/>value = [35, 0]>, fillcolor="#e58139"] ;
222 -> 223 ;
224 [label=<num__prevalentHyp &le; 0.5<br/>gini = 0.245<br/>samples = 7<br/>value = [6, 1]>, fillcolor="#e9965a"] ;
222 -> 224 ;
225 [label=<num__glucose &le; 86.0<br/>gini = 0.5<br/>samples = 2<br/>value = [1, 1]>, fillcolor="#ffffff"] ;
224 -> 225 ;
226 [label=<gini = 0.0<br/>samples = 1<br/>value = [0, 1]>, fillcolor="#399de5"] ;
225 -> 226 ;
227 [label=<gini = 0.0<br/>samples = 1<br/>value = [1, 0]>, fillcolor="#e58139"] ;
225 -> 227 ;
228 [label=<gini = 0.0<br/>samples = 5<br/>value = [5, 0]>, fillcolor="#e58139"] ;
224 -> 228 ;
229 [label=<num__glucose &le; 81.5<br/>gini = 0.298<br/>samples = 11<br/>value = [9, 2]>, fillcolor="#eb9d65"] ;
221 -> 229 ;
230 [label=<num__BMI &le; 26.555<br/>gini = 0.444<br/>samples = 6<br/>value = [4, 2]>, fillcolor="#f2c09c"] ;
229 -> 230 ;
231 [label=<gini = 0.0<br/>samples = 3<br/>value = [3, 0]>, fillcolor="#e58139"] ;
230 -> 231 ;
232 [label=<num__BMI &le; 33.168<br/>gini = 0.444<br/>samples = 3<br/>value = [1, 2]>, fillcolor="#9ccef2"] ;
230 -> 232 ;
233 [label=<gini = 0.0<br/>samples = 2<br/>value = [0, 2]>, fillcolor="#399de5"] ;
232 -> 233 ;
234 [label=<gini = 0.0<br/>samples = 1<br/>value = [1, 0]>, fillcolor="#e58139"] ;
232 -> 234 ;
235 [label=<gini = 0.0<br/>samples = 5<br/>value = [5, 0]>, fillcolor="#e58139"] ;
229 -> 235 ;
236 [label=<num__Systolic BP &le; 147.0<br/>gini = 0.386<br/>samples = 23<br/>value = [17, 6]>, fillcolor="#eead7f"] ;
220 -> 236 ;
237 [label=<gini = 0.0<br/>samples = 11<br/>value = [11, 0]>, fillcolor="#e58139"] ;
236 -> 237 ;
238 [label=<num__tot cholesterol &le; 271.5<br/>gini = 0.5<br/>samples = 12<br/>value = [6, 6]>, fillcolor="#ffffff"] ;
236 -> 238 ;
239 [label=<gini = 0.0<br/>samples = 3<br/>value = [0, 3]>, fillcolor="#399de5"] ;
238 -> 239 ;
240 [label=<num__BMI &le; 30.25<br/>gini = 0.444<br/>samples = 9<br/>value = [6, 3]>, fillcolor="#f2c09c"] ;
238 -> 240 ;
241 [label=<num__heartRate &le; 94.0<br/>gini = 0.245<br/>samples = 7<br/>value = [6, 1]>, fillcolor="#e9965a"] ;
240 -> 241 ;
242 [label=<gini = 0.0<br/>samples = 5<br/>value = [5, 0]>, fillcolor="#e58139"] ;
241 -> 242 ;
243 [label=<num__Systolic BP &le; 182.25<br/>gini = 0.5<br/>samples = 2<br/>value = [1, 1]>, fillcolor="#ffffff"] ;
241 -> 243 ;
244 [label=<gini = 0.0<br/>samples = 1<br/>value = [0, 1]>, fillcolor="#399de5"] ;
243 -> 244 ;
245 [label=<gini = 0.0<br/>samples = 1<br/>value = [1, 0]>, fillcolor="#e58139"] ;
243 -> 245 ;
246 [label=<gini = 0.0<br/>samples = 2<br/>value = [0, 2]>, fillcolor="#399de5"] ;
240 -> 246 ;
247 [label=<num__BMI &le; 38.694<br/>gini = 0.04<br/>samples = 98<br/>value = [96.0, 2.0]>, fillcolor="#e6843d"] ;
217 -> 247 ;
248 [label=<num__glucose_missing &le; 0.5<br/>gini = 0.021<br/>samples = 93<br/>value = [92, 1]>, fillcolor="#e5823b"] ;
247 -> 248 ;
249 [label=<gini = 0.0<br/>samples = 87<br/>value = [87, 0]>, fillcolor="#e58139"] ;
248 -> 249 ;
250 [label=<num__cigsPerDay &le; 7.0<br/>gini = 0.278<br/>samples = 6<br/>value = [5, 1]>, fillcolor="#ea9a61"] ;
248 -> 250 ;
251 [label=<gini = 0.0<br/>samples = 5<br/>value = [5, 0]>, fillcolor="#e58139"] ;
250 -> 251 ;
252 [label=<gini = 0.0<br/>samples = 1<br/>value = [0, 1]>, fillcolor="#399de5"] ;
250 -> 252 ;
253 [label=<num__tot cholesterol &le; 251.5<br/>gini = 0.32<br/>samples = 5<br/>value = [4, 1]>, fillcolor="#eca06a"] ;
247 -> 253 ;
254 [label=<gini = 0.0<br/>samples = 4<br/>value = [4, 0]>, fillcolor="#e58139"] ;
253 -> 254 ;
255 [label=<gini = 0.0<br/>samples = 1<br/>value = [0, 1]>, fillcolor="#399de5"] ;
253 -> 255 ;
256 [label=<num__glucose &le; 152.04<br/>gini = 0.341<br/>samples = 110<br/>value = [86, 24]>, fillcolor="#eca470"] ;
208 -> 256 ;
257 [label=<num__BMI &le; 22.695<br/>gini = 0.324<br/>samples = 108<br/>value = [86, 22]>, fillcolor="#eca16c"] ;
256 -> 257 ;
258 [label=<num__tot cholesterol &le; 225.5<br/>gini = 0.48<br/>samples = 15<br/>value = [9, 6]>, fillcolor="#f6d5bd"] ;
257 -> 258 ;
259 [label=<num__glucose &le; 69.5<br/>gini = 0.469<br/>samples = 8<br/>value = [3, 5]>, fillcolor="#b0d8f5"] ;
258 -> 259 ;
260 [label=<gini = 0.0<br/>samples = 2<br/>value = [2, 0]>, fillcolor="#e58139"] ;
259 -> 260 ;
261 [label=<num__Diastolic BP &le; 81.0<br/>gini = 0.278<br/>samples = 6<br/>value = [1, 5]>, fillcolor="#61b1ea"] ;
259 -> 261 ;
262 [label=<gini = 0.0<br/>samples = 1<br/>value = [1, 0]>, fillcolor="#e58139"] ;
261 -> 262 ;
263 [label=<gini = 0.0<br/>samples = 5<br/>value = [0, 5]>, fillcolor="#399de5"] ;
261 -> 263 ;
264 [label=<num__cigsPerDay &le; 19.0<br/>gini = 0.245<br/>samples = 7<br/>value = [6, 1]>, fillcolor="#e9965a"] ;
258 -> 264 ;
265 [label=<gini = 0.0<br/>samples = 1<br/>value = [0, 1]>, fillcolor="#399de5"] ;
264 -> 265 ;
266 [label=<gini = 0.0<br/>samples = 6<br/>value = [6, 0]>, fillcolor="#e58139"] ;
264 -> 266 ;
267 [label=<num__tot cholesterol &le; 245.5<br/>gini = 0.285<br/>samples = 93<br/>value = [77, 16]>, fillcolor="#ea9b62"] ;
257 -> 267 ;
268 [label=<num__BMI &le; 37.368<br/>gini = 0.185<br/>samples = 58<br/>value = [52, 6]>, fillcolor="#e89050"] ;
267 -> 268 ;
269 [label=<num__heartRate &le; 55.0<br/>gini = 0.16<br/>samples = 57<br/>value = [52, 5]>, fillcolor="#e88d4c"] ;
268 -> 269 ;
270 [label=<gini = 0.0<br/>samples = 1<br/>value = [0, 1]>, fillcolor="#399de5"] ;
269 -> 270 ;
271 [label=<num__heartRate &le; 98.5<br/>gini = 0.133<br/>samples = 56<br/>value = [52, 4]>, fillcolor="#e78b48"] ;
269 -> 271 ;
272 [label=<num__education &le; 3.5<br/>gini = 0.105<br/>samples = 54<br/>value = [51, 3]>, fillcolor="#e78845"] ;
271 -> 272 ;
273 [label=<num__BMI &le; 23.33<br/>gini = 0.042<br/>samples = 47<br/>value = [46, 1]>, fillcolor="#e6843d"] ;
272 -> 273 ;
274 [label=<num__glucose &le; 64.5<br/>gini = 0.278<br/>samples = 6<br/>value = [5, 1]>, fillcolor="#ea9a61"] ;
273 -> 274 ;
275 [label=<gini = 0.0<br/>samples = 1<br/>value = [0, 1]>, fillcolor="#399de5"] ;
274 -> 275 ;
276 [label=<gini = 0.0<br/>samples = 5<br/>value = [5, 0]>, fillcolor="#e58139"] ;
274 -> 276 ;
277 [label=<gini = 0.0<br/>samples = 41<br/>value = [41, 0]>, fillcolor="#e58139"] ;
273 -> 277 ;
278 [label=<num__Systolic BP &le; 148.0<br/>gini = 0.408<br/>samples = 7<br/>value = [5, 2]>, fillcolor="#efb388"] ;
272 -> 278 ;
279 [label=<gini = 0.0<br/>samples = 4<br/>value = [4, 0]>, fillcolor="#e58139"] ;
278 -> 279 ;
280 [label=<num__tot cholesterol &le; 236.0<br/>gini = 0.444<br/>samples = 3<br/>value = [1, 2]>, fillcolor="#9ccef2"] ;
278 -> 280 ;
281 [label=<gini = 0.0<br/>samples = 2<br/>value = [0, 2]>, fillcolor="#399de5"] ;
280 -> 281 ;
282 [label=<gini = 0.0<br/>samples = 1<br/>value = [1, 0]>, fillcolor="#e58139"] ;
280 -> 282 ;
283 [label=<num__education &le; 1.5<br/>gini = 0.5<br/>samples = 2<br/>value = [1, 1]>, fillcolor="#ffffff"] ;
271 -> 283 ;
284 [label=<gini = 0.0<br/>samples = 1<br/>value = [0, 1]>, fillcolor="#399de5"] ;
283 -> 284 ;
285 [label=<gini = 0.0<br/>samples = 1<br/>value = [1, 0]>, fillcolor="#e58139"] ;
283 -> 285 ;
286 [label=<gini = 0.0<br/>samples = 1<br/>value = [0, 1]>, fillcolor="#399de5"] ;
268 -> 286 ;
287 [label=<num__BMI &le; 30.185<br/>gini = 0.408<br/>samples = 35<br/>value = [25, 10]>, fillcolor="#efb388"] ;
267 -> 287 ;
288 [label=<num__BMI &le; 27.505<br/>gini = 0.469<br/>samples = 24<br/>value = [15, 9]>, fillcolor="#f5cdb0"] ;
287 -> 288 ;
289 [label=<num__glucose &le; 70.5<br/>gini = 0.36<br/>samples = 17<br/>value = [13, 4]>, fillcolor="#eda876"] ;
288 -> 289 ;
290 [label=<num__heartRate &le; 79.5<br/>gini = 0.375<br/>samples = 4<br/>value = [1, 3]>, fillcolor="#7bbeee"] ;
289 -> 290 ;
291 [label=<gini = 0.0<br/>samples = 3<br/>value = [0, 3]>, fillcolor="#399de5"] ;
290 -> 291 ;
292 [label=<gini = 0.0<br/>samples = 1<br/>value = [1, 0]>, fillcolor="#e58139"] ;
290 -> 292 ;
293 [label=<num__glucose_missing &le; 0.5<br/>gini = 0.142<br/>samples = 13<br/>value = [12, 1]>, fillcolor="#e78c49"] ;
289 -> 293 ;
294 [label=<gini = 0.0<br/>samples = 11<br/>value = [11, 0]>, fillcolor="#e58139"] ;
293 -> 294 ;
295 [label=<cat__Gender_Female &le; 0.5<br/>gini = 0.5<br/>samples = 2<br/>value = [1, 1]>, fillcolor="#ffffff"] ;
293 -> 295 ;
296 [label=<gini = 0.0<br/>samples = 1<br/>value = [1, 0]>, fillcolor="#e58139"] ;
295 -> 296 ;
297 [label=<gini = 0.0<br/>samples = 1<br/>value = [0, 1]>, fillcolor="#399de5"] ;
295 -> 297 ;
298 [label=<num__Diastolic BP &le; 89.0<br/>gini = 0.408<br/>samples = 7<br/>value = [2, 5]>, fillcolor="#88c4ef"] ;
288 -> 298 ;
299 [label=<gini = 0.0<br/>samples = 2<br/>value = [2, 0]>, fillcolor="#e58139"] ;
298 -> 299 ;
300 [label=<gini = 0.0<br/>samples = 5<br/>value = [0, 5]>, fillcolor="#399de5"] ;
298 -> 300 ;
301 [label=<num__glucose &le; 88.5<br/>gini = 0.165<br/>samples = 11<br/>value = [10, 1]>, fillcolor="#e88e4d"] ;
287 -> 301 ;
302 [label=<gini = 0.0<br/>samples = 10<br/>value = [10, 0]>, fillcolor="#e58139"] ;
301 -> 302 ;
303 [label=<gini = 0.0<br/>samples = 1<br/>value = [0, 1]>, fillcolor="#399de5"] ;
301 -> 303 ;
304 [label=<gini = 0.0<br/>samples = 2<br/>value = [0, 2]>, fillcolor="#399de5"] ;
256 -> 304 ;
305 [label=<num__age &le; 44.0<br/>gini = 0.444<br/>samples = 6<br/>value = [2, 4]>, fillcolor="#9ccef2"] ;
1 -> 305 ;
306 [label=<gini = 0.0<br/>samples = 2<br/>value = [2, 0]>, fillcolor="#e58139"] ;
305 -> 306 ;
307 [label=<gini = 0.0<br/>samples = 4<br/>value = [0, 4]>, fillcolor="#399de5"] ;
305 -> 307 ;
308 [label=<num__Systolic BP &le; 144.25<br/>gini = 0.352<br/>samples = 1500<br/>value = [1158, 342]>, fillcolor="#eda673"] ;
0 -> 308 [labeldistance=2.5, labelangle=-45, headlabel="False"] ;
309 [label=<num__glucose &le; 142.5<br/>gini = 0.293<br/>samples = 959<br/>value = [788, 171]>, fillcolor="#eb9c64"] ;
308 -> 309 ;
310 [label=<cat__Gender_Male &le; 0.5<br/>gini = 0.283<br/>samples = 942<br/>value = [781, 161]>, fillcolor="#ea9b62"] ;
309 -> 310 ;
311 [label=<num__heartRate &le; 89.0<br/>gini = 0.238<br/>samples = 507<br/>value = [437, 70]>, fillcolor="#e99559"] ;
310 -> 311 ;
312 [label=<num__BMI &le; 36.4<br/>gini = 0.207<br/>samples = 444<br/>value = [392, 52]>, fillcolor="#e89253"] ;
311 -> 312 ;
313 [label=<num__BP Meds &le; 0.5<br/>gini = 0.198<br/>samples = 440<br/>value = [391, 49]>, fillcolor="#e89152"] ;
312 -> 313 ;
314 [label=<num__heartRate &le; 69.5<br/>gini = 0.187<br/>samples = 431<br/>value = [386, 45]>, fillcolor="#e89050"] ;
313 -> 314 ;
315 [label=<num__BMI &le; 33.05<br/>gini = 0.282<br/>samples = 141<br/>value = [117, 24]>, fillcolor="#ea9b62"] ;
314 -> 315 ;
316 [label=<num__Diastolic BP &le; 61.5<br/>gini = 0.258<br/>samples = 138<br/>value = [117, 21]>, fillcolor="#ea985d"] ;
315 -> 316 ;
317 [label=<gini = 0.0<br/>samples = 2<br/>value = [0, 2]>, fillcolor="#399de5"] ;
316 -> 317 ;
318 [label=<num__glucose &le; 56.5<br/>gini = 0.24<br/>samples = 136<br/>value = [117, 19]>, fillcolor="#e99559"] ;
316 -> 318 ;
319 [label=<gini = 0.0<br/>samples = 1<br/>value = [0, 1]>, fillcolor="#399de5"] ;
318 -> 319 ;
320 [label=<num__Diastolic BP &le; 69.5<br/>gini = 0.231<br/>samples = 135<br/>value = [117, 18]>, fillcolor="#e99457"] ;
318 -> 320 ;
321 [label=<num__Systolic BP &le; 126.25<br/>gini = 0.444<br/>samples = 15<br/>value = [10, 5]>, fillcolor="#f2c09c"] ;
320 -> 321 ;
322 [label=<num__tot cholesterol &le; 309.0<br/>gini = 0.278<br/>samples = 12<br/>value = [10, 2]>, fillcolor="#ea9a61"] ;
321 -> 322 ;
323 [label=<num__Systolic BP &le; 119.25<br/>gini = 0.165<br/>samples = 11<br/>value = [10, 1]>, fillcolor="#e88e4d"] ;
322 -> 323 ;
324 [label=<gini = 0.0<br/>samples = 8<br/>value = [8, 0]>, fillcolor="#e58139"] ;
323 -> 324 ;
325 [label=<num__education &le; 1.5<br/>gini = 0.444<br/>samples = 3<br/>value = [2, 1]>, fillcolor="#f2c09c"] ;
323 -> 325 ;
326 [label=<gini = 0.0<br/>samples = 1<br/>value = [0, 1]>, fillcolor="#399de5"] ;
325 -> 326 ;
327 [label=<gini = 0.0<br/>samples = 2<br/>value = [2, 0]>, fillcolor="#e58139"] ;
325 -> 327 ;
328 [label=<gini = 0.0<br/>samples = 1<br/>value = [0, 1]>, fillcolor="#399de5"] ;
322 -> 328 ;
329 [label=<gini = 0.0<br/>samples = 3<br/>value = [0, 3]>, fillcolor="#399de5"] ;
321 -> 329 ;
330 [label=<num__BMI &le; 28.625<br/>gini = 0.193<br/>samples = 120<br/>value = [107, 13]>, fillcolor="#e89051"] ;
320 -> 330 ;
331 [label=<num__Systolic BP &le; 143.75<br/>gini = 0.155<br/>samples = 106<br/>value = [97, 9]>, fillcolor="#e78d4b"] ;
330 -> 331 ;
332 [label=<num__age &le; 54.5<br/>gini = 0.142<br/>samples = 104<br/>value = [96, 8]>, fillcolor="#e78c49"] ;
331 -> 332 ;
333 [label=<num__tot cholesterol &le; 316.0<br/>gini = 0.236<br/>samples = 44<br/>value = [38, 6]>, fillcolor="#e99558"] ;
332 -> 333 ;
334 [label=<num__heartRate &le; 64.5<br/>gini = 0.176<br/>samples = 41<br/>value = [37, 4]>, fillcolor="#e88f4e"] ;
333 -> 334 ;
335 [label=<gini = 0.0<br/>samples = 22<br/>value = [22, 0]>, fillcolor="#e58139"] ;
334 -> 335 ;
336 [label=<num__BMI &le; 21.97<br/>gini = 0.332<br/>samples = 19<br/>value = [15, 4]>, fillcolor="#eca36e"] ;
334 -> 336 ;
337 [label=<num__education &le; 2.5<br/>gini = 0.444<br/>samples = 3<br/>value = [1, 2]>, fillcolor="#9ccef2"] ;
336 -> 337 ;
338 [label=<gini = 0.0<br/>samples = 2<br/>value = [0, 2]>, fillcolor="#399de5"] ;
337 -> 338 ;
339 [label=<gini = 0.0<br/>samples = 1<br/>value = [1, 0]>, fillcolor="#e58139"] ;
337 -> 339 ;
340 [label=<num__Systolic BP &le; 127.0<br/>gini = 0.219<br/>samples = 16<br/>value = [14, 2]>, fillcolor="#e99355"] ;
336 -> 340 ;
341 [label=<num__education &le; 2.0<br/>gini = 0.48<br/>samples = 5<br/>value = [3, 2]>, fillcolor="#f6d5bd"] ;
340 -> 341 ;
342 [label=<gini = 0.0<br/>samples = 2<br/>value = [0, 2]>, fillcolor="#399de5"] ;
341 -> 342 ;
343 [label=<gini = 0.0<br/>samples = 3<br/>value = [3, 0]>, fillcolor="#e58139"] ;
341 -> 343 ;
344 [label=<gini = 0.0<br/>samples = 11<br/>value = [11, 0]>, fillcolor="#e58139"] ;
340 -> 344 ;
345 [label=<num__education &le; 1.5<br/>gini = 0.444<br/>samples = 3<br/>value = [1, 2]>, fillcolor="#9ccef2"] ;
333 -> 345 ;
346 [label=<gini = 0.0<br/>samples = 1<br/>value = [1, 0]>, fillcolor="#e58139"] ;
345 -> 346 ;
347 [label=<gini = 0.0<br/>samples = 2<br/>value = [0, 2]>, fillcolor="#399de5"] ;
345 -> 347 ;
348 [label=<num__age &le; 64.5<br/>gini = 0.064<br/>samples = 60<br/>value = [58, 2]>, fillcolor="#e68540"] ;
332 -> 348 ;
349 [label=<num__glucose &le; 87.5<br/>gini = 0.035<br/>samples = 56<br/>value = [55, 1]>, fillcolor="#e5833d"] ;
348 -> 349 ;
350 [label=<gini = 0.0<br/>samples = 48<br/>value = [48, 0]>, fillcolor="#e58139"] ;
349 -> 350 ;
351 [label=<num__Systolic BP &le; 121.0<br/>gini = 0.219<br/>samples = 8<br/>value = [7, 1]>, fillcolor="#e99355"] ;
349 -> 351 ;
352 [label=<gini = 0.0<br/>samples = 1<br/>value = [0, 1]>, fillcolor="#399de5"] ;
351 -> 352 ;
353 [label=<gini = 0.0<br/>samples = 7<br/>value = [7, 0]>, fillcolor="#e58139"] ;
351 -> 353 ;
354 [label=<num__BMI &le; 22.415<br/>gini = 0.375<br/>samples = 4<br/>value = [3, 1]>, fillcolor="#eeab7b"] ;
348 -> 354 ;
355 [label=<gini = 0.0<br/>samples = 1<br/>value = [0, 1]>, fillcolor="#399de5"] ;
354 -> 355 ;
356 [label=<gini = 0.0<br/>samples = 3<br/>value = [3, 0]>, fillcolor="#e58139"] ;
354 -> 356 ;
357 [label=<num__education &le; 2.0<br/>gini = 0.5<br/>samples = 2<br/>value = [1, 1]>, fillcolor="#ffffff"] ;
331 -> 357 ;
358 [label=<gini = 0.0<br/>samples = 1<br/>value = [0, 1]>, fillcolor="#399de5"] ;
357 -> 358 ;
359 [label=<gini = 0.0<br/>samples = 1<br/>value = [1, 0]>, fillcolor="#e58139"] ;
357 -> 359 ;
360 [label=<num__glucose &le; 75.5<br/>gini = 0.408<br/>samples = 14<br/>value = [10, 4]>, fillcolor="#efb388"] ;
330 -> 360 ;
361 [label=<gini = 0.0<br/>samples = 5<br/>value = [5, 0]>, fillcolor="#e58139"] ;
360 -> 361 ;
362 [label=<num__Systolic BP &le; 125.75<br/>gini = 0.494<br/>samples = 9<br/>value = [5, 4]>, fillcolor="#fae6d7"] ;
360 -> 362 ;
363 [label=<gini = 0.0<br/>samples = 3<br/>value = [0, 3]>, fillcolor="#399de5"] ;
362 -> 363 ;
364 [label=<num__BMI &le; 28.975<br/>gini = 0.278<br/>samples = 6<br/>value = [5, 1]>, fillcolor="#ea9a61"] ;
362 -> 364 ;
365 [label=<num__BMI &le; 28.775<br/>gini = 0.5<br/>samples = 2<br/>value = [1, 1]>, fillcolor="#ffffff"] ;
364 -> 365 ;
366 [label=<gini = 0.0<br/>samples = 1<br/>value = [1, 0]>, fillcolor="#e58139"] ;
365 -> 366 ;
367 [label=<gini = 0.0<br/>samples = 1<br/>value = [0, 1]>, fillcolor="#399de5"] ;
365 -> 367 ;
368 [label=<gini = 0.0<br/>samples = 4<br/>value = [4, 0]>, fillcolor="#e58139"] ;
364 -> 368 ;
369 [label=<gini = 0.0<br/>samples = 3<br/>value = [0, 3]>, fillcolor="#399de5"] ;
315 -> 369 ;
370 [label=<num__BMI &le; 20.035<br/>gini = 0.134<br/>samples = 290<br/>value = [269, 21]>, fillcolor="#e78b48"] ;
314 -> 370 ;
371 [label=<num__tot cholesterol &le; 264.5<br/>gini = 0.332<br/>samples = 19<br/>value = [15, 4]>, fillcolor="#eca36e"] ;
370 -> 371 ;
372 [label=<gini = 0.0<br/>samples = 12<br/>value = [12, 0]>, fillcolor="#e58139"] ;
371 -> 372 ;
373 [label=<num__BMI &le; 19.115<br/>gini = 0.49<br/>samples = 7<br/>value = [3, 4]>, fillcolor="#cee6f8"] ;
371 -> 373 ;
374 [label=<gini = 0.0<br/>samples = 3<br/>value = [3, 0]>, fillcolor="#e58139"] ;
373 -> 374 ;
375 [label=<gini = 0.0<br/>samples = 4<br/>value = [0, 4]>, fillcolor="#399de5"] ;
373 -> 375 ;
376 [label=<num__age &le; 67.5<br/>gini = 0.118<br/>samples = 271<br/>value = [254, 17]>, fillcolor="#e78946"] ;
370 -> 376 ;
377 [label=<num__glucose &le; 90.5<br/>gini = 0.112<br/>samples = 268<br/>value = [252, 16]>, fillcolor="#e78946"] ;
376 -> 377 ;
378 [label=<num__glucose &le; 84.5<br/>gini = 0.132<br/>samples = 225<br/>value = [209, 16]>, fillcolor="#e78b48"] ;
377 -> 378 ;
379 [label=<num__glucose &le; 69.5<br/>gini = 0.108<br/>samples = 192<br/>value = [181, 11]>, fillcolor="#e78945"] ;
378 -> 379 ;
380 [label=<gini = 0.0<br/>samples = 39<br/>value = [39, 0]>, fillcolor="#e58139"] ;
379 -> 380 ;
381 [label=<num__age &le; 64.5<br/>gini = 0.133<br/>samples = 153<br/>value = [142, 11]>, fillcolor="#e78b48"] ;
379 -> 381 ;
382 [label=<num__Diastolic BP &le; 79.5<br/>gini = 0.124<br/>samples = 150<br/>value = [140, 10]>, fillcolor="#e78a47"] ;
381 -> 382 ;
383 [label=<num__glucose &le; 71.5<br/>gini = 0.033<br/>samples = 59<br/>value = [58, 1]>, fillcolor="#e5833c"] ;
382 -> 383 ;
384 [label=<num__glucose &le; 70.5<br/>gini = 0.444<br/>samples = 3<br/>value = [2, 1]>, fillcolor="#f2c09c"] ;
383 -> 384 ;
385 [label=<gini = 0.0<br/>samples = 2<br/>value = [2, 0]>, fillcolor="#e58139"] ;
384 -> 385 ;
386 [label=<gini = 0.0<br/>samples = 1<br/>value = [0, 1]>, fillcolor="#399de5"] ;
384 -> 386 ;
387 [label=<gini = 0.0<br/>samples = 56<br/>value = [56, 0]>, fillcolor="#e58139"] ;
383 -> 387 ;
388 [label=<num__tot cholesterol &le; 190.5<br/>gini = 0.178<br/>samples = 91<br/>value = [82, 9]>, fillcolor="#e88f4f"] ;
382 -> 388 ;
389 [label=<num__cigsPerDay &le; 20.0<br/>gini = 0.5<br/>samples = 2<br/>value = [1, 1]>, fillcolor="#ffffff"] ;
388 -> 389 ;
390 [label=<gini = 0.0<br/>samples = 1<br/>value = [0, 1]>, fillcolor="#399de5"] ;
389 -> 390 ;
391 [label=<gini = 0.0<br/>samples = 1<br/>value = [1, 0]>, fillcolor="#e58139"] ;
389 -> 391 ;
392 [label=<num__currentSmoker &le; 0.5<br/>gini = 0.164<br/>samples = 89<br/>value = [81, 8]>, fillcolor="#e88d4d"] ;
388 -> 392 ;
393 [label=<num__Diastolic BP &le; 80.75<br/>gini = 0.094<br/>samples = 61<br/>value = [58, 3]>, fillcolor="#e68843"] ;
392 -> 393 ;
394 [label=<num__Systolic BP &le; 126.25<br/>gini = 0.408<br/>samples = 7<br/>value = [5, 2]>, fillcolor="#efb388"] ;
393 -> 394 ;
395 [label=<num__education &le; 3.5<br/>gini = 0.444<br/>samples = 3<br/>value = [1, 2]>, fillcolor="#9ccef2"] ;
394 -> 395 ;
396 [label=<gini = 0.0<br/>samples = 2<br/>value = [0, 2]>, fillcolor="#399de5"] ;
395 -> 396 ;
397 [label=<gini = 0.0<br/>samples = 1<br/>value = [1, 0]>, fillcolor="#e58139"] ;
395 -> 397 ;
398 [label=<gini = 0.0<br/>samples = 4<br/>value = [4, 0]>, fillcolor="#e58139"] ;
394 -> 398 ;
399 [label=<num__Systolic BP &le; 125.5<br/>gini = 0.036<br/>samples = 54<br/>value = [53, 1]>, fillcolor="#e5833d"] ;
393 -> 399 ;
400 [label=<num__Systolic BP &le; 124.25<br/>gini = 0.142<br/>samples = 13<br/>value = [12, 1]>, fillcolor="#e78c49"] ;
399 -> 400 ;
401 [label=<gini = 0.0<br/>samples = 10<br/>value = [10, 0]>, fillcolor="#e58139"] ;
400 -> 401 ;
402 [label=<num__BMI &le; 25.465<br/>gini = 0.444<br/>samples = 3<br/>value = [2, 1]>, fillcolor="#f2c09c"] ;
400 -> 402 ;
403 [label=<gini = 0.0<br/>samples = 2<br/>value = [2, 0]>, fillcolor="#e58139"] ;
402 -> 403 ;
404 [label=<gini = 0.0<br/>samples = 1<br/>value = [0, 1]>, fillcolor="#399de5"] ;
402 -> 404 ;
405 [label=<gini = 0.0<br/>samples = 41<br/>value = [41, 0]>, fillcolor="#e58139"] ;
399 -> 405 ;
406 [label=<num__Systolic BP &le; 138.0<br/>gini = 0.293<br/>samples = 28<br/>value = [23, 5]>, fillcolor="#eb9c64"] ;
392 -> 406 ;
407 [label=<num__cigsPerDay &le; 7.0<br/>gini = 0.211<br/>samples = 25<br/>value = [22, 3]>, fillcolor="#e99254"] ;
406 -> 407 ;
408 [label=<num__tot cholesterol &le; 266.0<br/>gini = 0.5<br/>samples = 6<br/>value = [3, 3]>, fillcolor="#ffffff"] ;
407 -> 408 ;
409 [label=<gini = 0.0<br/>samples = 3<br/>value = [3, 0]>, fillcolor="#e58139"] ;
408 -> 409 ;
410 [label=<gini = 0.0<br/>samples = 3<br/>value = [0, 3]>, fillcolor="#399de5"] ;
408 -> 410 ;
411 [label=<gini = 0.0<br/>samples = 19<br/>value = [19, 0]>, fillcolor="#e58139"] ;
407 -> 411 ;
412 [label=<num__BMI &le; 25.19<br/>gini = 0.444<br/>samples = 3<br/>value = [1, 2]>, fillcolor="#9ccef2"] ;
406 -> 412 ;
413 [label=<gini = 0.0<br/>samples = 1<br/>value = [1, 0]>, fillcolor="#e58139"] ;
412 -> 413 ;
414 [label=<gini = 0.0<br/>samples = 2<br/>value = [0, 2]>, fillcolor="#399de5"] ;
412 -> 414 ;
415 [label=<num__BMI &le; 29.19<br/>gini = 0.444<br/>samples = 3<br/>value = [2, 1]>, fillcolor="#f2c09c"] ;
381 -> 415 ;
416 [label=<gini = 0.0<br/>samples = 1<br/>value = [0, 1]>, fillcolor="#399de5"] ;
415 -> 416 ;
417 [label=<gini = 0.0<br/>samples = 2<br/>value = [2, 0]>, fillcolor="#e58139"] ;
415 -> 417 ;
418 [label=<num__tot cholesterol &le; 282.5<br/>gini = 0.257<br/>samples = 33<br/>value = [28, 5]>, fillcolor="#ea985c"] ;
378 -> 418 ;
419 [label=<num__age &le; 50.5<br/>gini = 0.137<br/>samples = 27<br/>value = [25, 2]>, fillcolor="#e78b49"] ;
418 -> 419 ;
420 [label=<num__education &le; 1.5<br/>gini = 0.408<br/>samples = 7<br/>value = [5, 2]>, fillcolor="#efb388"] ;
419 -> 420 ;
421 [label=<num__tot cholesterol &le; 243.0<br/>gini = 0.444<br/>samples = 3<br/>value = [1, 2]>, fillcolor="#9ccef2"] ;
420 -> 421 ;
422 [label=<gini = 0.0<br/>samples = 2<br/>value = [0, 2]>, fillcolor="#399de5"] ;
421 -> 422 ;
423 [label=<gini = 0.0<br/>samples = 1<br/>value = [1, 0]>, fillcolor="#e58139"] ;
421 -> 423 ;
424 [label=<gini = 0.0<br/>samples = 4<br/>value = [4, 0]>, fillcolor="#e58139"] ;
420 -> 424 ;
425 [label=<gini = 0.0<br/>samples = 20<br/>value = [20, 0]>, fillcolor="#e58139"] ;
419 -> 425 ;
426 [label=<num__heartRate &le; 79.0<br/>gini = 0.5<br/>samples = 6<br/>value = [3, 3]>, fillcolor="#ffffff"] ;
418 -> 426 ;
427 [label=<num__BMI &le; 28.93<br/>gini = 0.375<br/>samples = 4<br/>value = [3, 1]>, fillcolor="#eeab7b"] ;
426 -> 427 ;
428 [label=<gini = 0.0<br/>samples = 3<br/>value = [3, 0]>, fillcolor="#e58139"] ;
427 -> 428 ;
429 [label=<gini = 0.0<br/>samples = 1<br/>value = [0, 1]>, fillcolor="#399de5"] ;
427 -> 429 ;
430 [label=<gini = 0.0<br/>samples = 2<br/>value = [0, 2]>, fillcolor="#399de5"] ;
426 -> 430 ;
431 [label=<gini = 0.0<br/>samples = 43<br/>value = [43, 0]>, fillcolor="#e58139"] ;
377 -> 431 ;
432 [label=<num__glucose &le; 76.0<br/>gini = 0.444<br/>samples = 3<br/>value = [2, 1]>, fillcolor="#f2c09c"] ;
376 -> 432 ;
433 [label=<gini = 0.0<br/>samples = 1<br/>value = [0, 1]>, fillcolor="#399de5"] ;
432 -> 433 ;
434 [label=<gini = 0.0<br/>samples = 2<br/>value = [2, 0]>, fillcolor="#e58139"] ;
432 -> 434 ;
435 [label=<num__Diastolic BP &le; 87.5<br/>gini = 0.494<br/>samples = 9<br/>value = [5, 4]>, fillcolor="#fae6d7"] ;
313 -> 435 ;
436 [label=<num__age &le; 53.5<br/>gini = 0.408<br/>samples = 7<br/>value = [5, 2]>, fillcolor="#efb388"] ;
435 -> 436 ;
437 [label=<num__heartRate &le; 57.5<br/>gini = 0.444<br/>samples = 3<br/>value = [1, 2]>, fillcolor="#9ccef2"] ;
436 -> 437 ;
438 [label=<gini = 0.0<br/>samples = 1<br/>value = [1, 0]>, fillcolor="#e58139"] ;
437 -> 438 ;
439 [label=<gini = 0.0<br/>samples = 2<br/>value = [0, 2]>, fillcolor="#399de5"] ;
437 -> 439 ;
440 [label=<gini = 0.0<br/>samples = 4<br/>value = [4, 0]>, fillcolor="#e58139"] ;
436 -> 440 ;
441 [label=<gini = 0.0<br/>samples = 2<br/>value = [0, 2]>, fillcolor="#399de5"] ;
435 -> 441 ;
442 [label=<num__tot cholesterol &le; 289.0<br/>gini = 0.375<br/>samples = 4<br/>value = [1, 3]>, fillcolor="#7bbeee"] ;
312 -> 442 ;
443 [label=<gini = 0.0<br/>samples = 3<br/>value = [0, 3]>, fillcolor="#399de5"] ;
442 -> 443 ;
444 [label=<gini = 0.0<br/>samples = 1<br/>value = [1, 0]>, fillcolor="#e58139"] ;
442 -> 444 ;
445 [label=<num__tot cholesterol &le; 251.0<br/>gini = 0.408<br/>samples = 63<br/>value = [45, 18]>, fillcolor="#efb388"] ;
311 -> 445 ;
446 [label=<num__BMI &le; 25.08<br/>gini = 0.495<br/>samples = 29<br/>value = [16, 13]>, fillcolor="#fae7da"] ;
445 -> 446 ;
447 [label=<num__age &le; 57.5<br/>gini = 0.375<br/>samples = 16<br/>value = [12, 4]>, fillcolor="#eeab7b"] ;
446 -> 447 ;
448 [label=<num__glucose_missing &le; 0.5<br/>gini = 0.165<br/>samples = 11<br/>value = [10, 1]>, fillcolor="#e88e4d"] ;
447 -> 448 ;
449 [label=<gini = 0.0<br/>samples = 9<br/>value = [9, 0]>, fillcolor="#e58139"] ;
448 -> 449 ;
450 [label=<num__heartRate &le; 100.0<br/>gini = 0.5<br/>samples = 2<br/>value = [1, 1]>, fillcolor="#ffffff"] ;
448 -> 450 ;
451 [label=<gini = 0.0<br/>samples = 1<br/>value = [0, 1]>, fillcolor="#399de5"] ;
450 -> 451 ;
452 [label=<gini = 0.0<br/>samples = 1<br/>value = [1, 0]>, fillcolor="#e58139"] ;
450 -> 452 ;
453 [label=<num__BMI &le; 22.735<br/>gini = 0.48<br/>samples = 5<br/>value = [2, 3]>, fillcolor="#bddef6"] ;
447 -> 453 ;
454 [label=<gini = 0.0<br/>samples = 2<br/>value = [0, 2]>, fillcolor="#399de5"] ;
453 -> 454 ;
455 [label=<num__Systolic BP &le; 141.25<br/>gini = 0.444<br/>samples = 3<br/>value = [2, 1]>, fillcolor="#f2c09c"] ;
453 -> 455 ;
456 [label=<gini = 0.0<br/>samples = 2<br/>value = [2, 0]>, fillcolor="#e58139"] ;
455 -> 456 ;
457 [label=<gini = 0.0<br/>samples = 1<br/>value = [0, 1]>, fillcolor="#399de5"] ;
455 -> 457 ;
458 [label=<num__education &le; 1.5<br/>gini = 0.426<br/>samples = 13<br/>value = [4, 9]>, fillcolor="#91c9f1"] ;
446 -> 458 ;
459 [label=<gini = 0.0<br/>samples = 6<br/>value = [0, 6]>, fillcolor="#399de5"] ;
458 -> 459 ;
460 [label=<num__BMI &le; 27.69<br/>gini = 0.49<br/>samples = 7<br/>value = [4, 3]>, fillcolor="#f8e0ce"] ;
458 -> 460 ;
461 [label=<num__Diastolic BP &le; 71.5<br/>gini = 0.375<br/>samples = 4<br/>value = [1, 3]>, fillcolor="#7bbeee"] ;
460 -> 461 ;
462 [label=<gini = 0.0<br/>samples = 1<br/>value = [1, 0]>, fillcolor="#e58139"] ;
461 -> 462 ;
463 [label=<gini = 0.0<br/>samples = 3<br/>value = [0, 3]>, fillcolor="#399de5"] ;
461 -> 463 ;
464 [label=<gini = 0.0<br/>samples = 3<br/>value = [3, 0]>, fillcolor="#e58139"] ;
460 -> 464 ;
465 [label=<num__heartRate &le; 106.5<br/>gini = 0.251<br/>samples = 34<br/>value = [29, 5]>, fillcolor="#e9975b"] ;
445 -> 465 ;
466 [label=<num__Systolic BP &le; 112.25<br/>gini = 0.124<br/>samples = 30<br/>value = [28, 2]>, fillcolor="#e78a47"] ;
465 -> 466 ;
467 [label=<gini = 0.0<br/>samples = 1<br/>value = [0, 1]>, fillcolor="#399de5"] ;
466 -> 467 ;
468 [label=<num__glucose &le; 73.5<br/>gini = 0.067<br/>samples = 29<br/>value = [28, 1]>, fillcolor="#e68640"] ;
466 -> 468 ;
469 [label=<num__heartRate &le; 99.0<br/>gini = 0.278<br/>samples = 6<br/>value = [5, 1]>, fillcolor="#ea9a61"] ;
468 -> 469 ;
470 [label=<gini = 0.0<br/>samples = 5<br/>value = [5, 0]>, fillcolor="#e58139"] ;
469 -> 470 ;
471 [label=<gini = 0.0<br/>samples = 1<br/>value = [0, 1]>, fillcolor="#399de5"] ;
469 -> 471 ;
472 [label=<gini = 0.0<br/>samples = 23<br/>value = [23, 0]>, fillcolor="#e58139"] ;
468 -> 472 ;
473 [label=<num__BMI &le; 20.09<br/>gini = 0.375<br/>samples = 4<br/>value = [1, 3]>, fillcolor="#7bbeee"] ;
465 -> 473 ;
474 [label=<gini = 0.0<br/>samples = 1<br/>value = [1, 0]>, fillcolor="#e58139"] ;
473 -> 474 ;
475 [label=<gini = 0.0<br/>samples = 3<br/>value = [0, 3]>, fillcolor="#399de5"] ;
473 -> 475 ;
476 [label=<num__Systolic BP &le; 118.25<br/>gini = 0.331<br/>samples = 435<br/>value = [344, 91]>, fillcolor="#eca26d"] ;
310 -> 476 ;
477 [label=<num__Diastolic BP &le; 60.5<br/>gini = 0.189<br/>samples = 123<br/>value = [110, 13]>, fillcolor="#e89050"] ;
476 -> 477 ;
478 [label=<num__glucose &le; 93.0<br/>gini = 0.444<br/>samples = 3<br/>value = [1, 2]>, fillcolor="#9ccef2"] ;
477 -> 478 ;
479 [label=<gini = 0.0<br/>samples = 2<br/>value = [0, 2]>, fillcolor="#399de5"] ;
478 -> 479 ;
480 [label=<gini = 0.0<br/>samples = 1<br/>value = [1, 0]>, fillcolor="#e58139"] ;
478 -> 480 ;
481 [label=<num__glucose &le; 59.0<br/>gini = 0.167<br/>samples = 120<br/>value = [109, 11]>, fillcolor="#e88e4d"] ;
477 -> 481 ;
482 [label=<num__cigsPerDay &le; 25.0<br/>gini = 0.48<br/>samples = 5<br/>value = [3, 2]>, fillcolor="#f6d5bd"] ;
481 -> 482 ;
483 [label=<gini = 0.0<br/>samples = 2<br/>value = [0, 2]>, fillcolor="#399de5"] ;
482 -> 483 ;
484 [label=<gini = 0.0<br/>samples = 3<br/>value = [3, 0]>, fillcolor="#e58139"] ;
482 -> 484 ;
485 [label=<num__tot cholesterol &le; 303.0<br/>gini = 0.144<br/>samples = 115<br/>value = [106, 9]>, fillcolor="#e78c4a"] ;
481 -> 485 ;
486 [label=<num__prevalentHyp &le; 0.5<br/>gini = 0.119<br/>samples = 110<br/>value = [103.0, 7.0]>, fillcolor="#e78a46"] ;
485 -> 486 ;
487 [label=<num__BMI &le; 21.11<br/>gini = 0.105<br/>samples = 108<br/>value = [102, 6]>, fillcolor="#e78845"] ;
486 -> 487 ;
488 [label=<num__cigsPerDay &le; 25.0<br/>gini = 0.375<br/>samples = 8<br/>value = [6, 2]>, fillcolor="#eeab7b"] ;
487 -> 488 ;
489 [label=<gini = 0.0<br/>samples = 6<br/>value = [6, 0]>, fillcolor="#e58139"] ;
488 -> 489 ;
490 [label=<gini = 0.0<br/>samples = 2<br/>value = [0, 2]>, fillcolor="#399de5"] ;
488 -> 490 ;
491 [label=<num__diabetes &le; 0.5<br/>gini = 0.077<br/>samples = 100<br/>value = [96, 4]>, fillcolor="#e68641"] ;
487 -> 491 ;
492 [label=<num__education &le; 2.5<br/>gini = 0.06<br/>samples = 97<br/>value = [94, 3]>, fillcolor="#e6853f"] ;
491 -> 492 ;
493 [label=<gini = 0.0<br/>samples = 64<br/>value = [64, 0]>, fillcolor="#e58139"] ;
492 -> 493 ;
494 [label=<num__BMI &le; 25.98<br/>gini = 0.165<br/>samples = 33<br/>value = [30, 3]>, fillcolor="#e88e4d"] ;
492 -> 494 ;
495 [label=<gini = 0.0<br/>samples = 20<br/>value = [20, 0]>, fillcolor="#e58139"] ;
494 -> 495 ;
496 [label=<num__BMI &le; 26.46<br/>gini = 0.355<br/>samples = 13<br/>value = [10, 3]>, fillcolor="#eda774"] ;
494 -> 496 ;
497 [label=<num__heartRate &le; 79.5<br/>gini = 0.444<br/>samples = 3<br/>value = [1, 2]>, fillcolor="#9ccef2"] ;
496 -> 497 ;
498 [label=<gini = 0.0<br/>samples = 2<br/>value = [0, 2]>, fillcolor="#399de5"] ;
497 -> 498 ;
499 [label=<gini = 0.0<br/>samples = 1<br/>value = [1, 0]>, fillcolor="#e58139"] ;
497 -> 499 ;
500 [label=<num__tot cholesterol &le; 264.0<br/>gini = 0.18<br/>samples = 10<br/>value = [9, 1]>, fillcolor="#e88f4f"] ;
496 -> 500 ;
501 [label=<gini = 0.0<br/>samples = 8<br/>value = [8, 0]>, fillcolor="#e58139"] ;
500 -> 501 ;
502 [label=<num__age &le; 60.5<br/>gini = 0.5<br/>samples = 2<br/>value = [1, 1]>, fillcolor="#ffffff"] ;
500 -> 502 ;
503 [label=<gini = 0.0<br/>samples = 1<br/>value = [0, 1]>, fillcolor="#399de5"] ;
502 -> 503 ;
504 [label=<gini = 0.0<br/>samples = 1<br/>value = [1, 0]>, fillcolor="#e58139"] ;
502 -> 504 ;
505 [label=<num__BMI &le; 25.225<br/>gini = 0.444<br/>samples = 3<br/>value = [2, 1]>, fillcolor="#f2c09c"] ;
491 -> 505 ;
506 [label=<gini = 0.0<br/>samples = 1<br/>value = [0, 1]>, fillcolor="#399de5"] ;
505 -> 506 ;
507 [label=<gini = 0.0<br/>samples = 2<br/>value = [2, 0]>, fillcolor="#e58139"] ;
505 -> 507 ;
508 [label=<num__Systolic BP &le; 114.5<br/>gini = 0.5<br/>samples = 2<br/>value = [1, 1]>, fillcolor="#ffffff"] ;
486 -> 508 ;
509 [label=<gini = 0.0<br/>samples = 1<br/>value = [1, 0]>, fillcolor="#e58139"] ;
508 -> 509 ;
510 [label=<gini = 0.0<br/>samples = 1<br/>value = [0, 1]>, fillcolor="#399de5"] ;
508 -> 510 ;
511 [label=<num__cigsPerDay &le; 16.5<br/>gini = 0.48<br/>samples = 5<br/>value = [3, 2]>, fillcolor="#f6d5bd"] ;
485 -> 511 ;
512 [label=<gini = 0.0<br/>samples = 3<br/>value = [3, 0]>, fillcolor="#e58139"] ;
511 -> 512 ;
513 [label=<gini = 0.0<br/>samples = 2<br/>value = [0, 2]>, fillcolor="#399de5"] ;
511 -> 513 ;
514 [label=<num__glucose &le; 62.5<br/>gini = 0.375<br/>samples = 312<br/>value = [234, 78]>, fillcolor="#eeab7b"] ;
476 -> 514 ;
515 [label=<num__education &le; 3.5<br/>gini = 0.095<br/>samples = 20<br/>value = [19, 1]>, fillcolor="#e68843"] ;
514 -> 515 ;
516 [label=<gini = 0.0<br/>samples = 19<br/>value = [19, 0]>, fillcolor="#e58139"] ;
515 -> 516 ;
517 [label=<gini = 0.0<br/>samples = 1<br/>value = [0, 1]>, fillcolor="#399de5"] ;
515 -> 517 ;
518 [label=<num__glucose &le; 66.5<br/>gini = 0.388<br/>samples = 292<br/>value = [215.0, 77.0]>, fillcolor="#eeae80"] ;
514 -> 518 ;
519 [label=<num__Diastolic BP &le; 80.75<br/>gini = 0.5<br/>samples = 18<br/>value = [9, 9]>, fillcolor="#ffffff"] ;
518 -> 519 ;
520 [label=<gini = 0.0<br/>samples = 7<br/>value = [0, 7]>, fillcolor="#399de5"] ;
519 -> 520 ;
521 [label=<num__age &le; 56.5<br/>gini = 0.298<br/>samples = 11<br/>value = [9, 2]>, fillcolor="#eb9d65"] ;
519 -> 521 ;
522 [label=<num__cigsPerDay &le; 22.5<br/>gini = 0.18<br/>samples = 10<br/>value = [9, 1]>, fillcolor="#e88f4f"] ;
521 -> 522 ;
523 [label=<gini = 0.0<br/>samples = 8<br/>value = [8, 0]>, fillcolor="#e58139"] ;
522 -> 523 ;
524 [label=<num__BMI &le; 27.065<br/>gini = 0.5<br/>samples = 2<br/>value = [1, 1]>, fillcolor="#ffffff"] ;
522 -> 524 ;
525 [label=<gini = 0.0<br/>samples = 1<br/>value = [0, 1]>, fillcolor="#399de5"] ;
524 -> 525 ;
526 [label=<gini = 0.0<br/>samples = 1<br/>value = [1, 0]>, fillcolor="#e58139"] ;
524 -> 526 ;
527 [label=<gini = 0.0<br/>samples = 1<br/>value = [0, 1]>, fillcolor="#399de5"] ;
521 -> 527 ;
528 [label=<num__tot cholesterol &le; 295.5<br/>gini = 0.373<br/>samples = 274<br/>value = [206, 68]>, fillcolor="#eeab7a"] ;
518 -> 528 ;
529 [label=<num__tot cholesterol &le; 274.5<br/>gini = 0.355<br/>samples = 256<br/>value = [197, 59]>, fillcolor="#eda774"] ;
528 -> 529 ;
530 [label=<num__Diastolic BP &le; 77.25<br/>gini = 0.374<br/>samples = 237<br/>value = [178, 59]>, fillcolor="#eeab7b"] ;
529 -> 530 ;
531 [label=<num__tot cholesterol &le; 259.0<br/>gini = 0.464<br/>samples = 52<br/>value = [33, 19]>, fillcolor="#f4caab"] ;
530 -> 531 ;
532 [label=<num__BMI &le; 24.48<br/>gini = 0.363<br/>samples = 42<br/>value = [32, 10]>, fillcolor="#eda877"] ;
531 -> 532 ;
533 [label=<num__glucose &le; 97.0<br/>gini = 0.117<br/>samples = 16<br/>value = [15, 1]>, fillcolor="#e78946"] ;
532 -> 533 ;
534 [label=<gini = 0.0<br/>samples = 13<br/>value = [13, 0]>, fillcolor="#e58139"] ;
533 -> 534 ;
535 [label=<num__Diastolic BP &le; 75.5<br/>gini = 0.444<br/>samples = 3<br/>value = [2, 1]>, fillcolor="#f2c09c"] ;
533 -> 535 ;
536 [label=<gini = 0.0<br/>samples = 1<br/>value = [0, 1]>, fillcolor="#399de5"] ;
535 -> 536 ;
537 [label=<gini = 0.0<br/>samples = 2<br/>value = [2, 0]>, fillcolor="#e58139"] ;
535 -> 537 ;
538 [label=<num__BMI &le; 24.985<br/>gini = 0.453<br/>samples = 26<br/>value = [17, 9]>, fillcolor="#f3c4a2"] ;
532 -> 538 ;
539 [label=<gini = 0.0<br/>samples = 5<br/>value = [0, 5]>, fillcolor="#399de5"] ;
538 -> 539 ;
540 [label=<num__tot cholesterol &le; 232.5<br/>gini = 0.308<br/>samples = 21<br/>value = [17, 4]>, fillcolor="#eb9f68"] ;
538 -> 540 ;
541 [label=<gini = 0.0<br/>samples = 13<br/>value = [13, 0]>, fillcolor="#e58139"] ;
540 -> 541 ;
542 [label=<num__cigsPerDay &le; 0.5<br/>gini = 0.5<br/>samples = 8<br/>value = [4, 4]>, fillcolor="#ffffff"] ;
540 -> 542 ;
543 [label=<num__Systolic BP &le; 124.5<br/>gini = 0.32<br/>samples = 5<br/>value = [4, 1]>, fillcolor="#eca06a"] ;
542 -> 543 ;
544 [label=<gini = 0.0<br/>samples = 1<br/>value = [0, 1]>, fillcolor="#399de5"] ;
543 -> 544 ;
545 [label=<gini = 0.0<br/>samples = 4<br/>value = [4, 0]>, fillcolor="#e58139"] ;
543 -> 545 ;
546 [label=<gini = 0.0<br/>samples = 3<br/>value = [0, 3]>, fillcolor="#399de5"] ;
542 -> 546 ;
547 [label=<num__glucose_missing &le; 0.5<br/>gini = 0.18<br/>samples = 10<br/>value = [1, 9]>, fillcolor="#4fa8e8"] ;
531 -> 547 ;
548 [label=<gini = 0.0<br/>samples = 9<br/>value = [0, 9]>, fillcolor="#399de5"] ;
547 -> 548 ;
549 [label=<gini = 0.0<br/>samples = 1<br/>value = [1, 0]>, fillcolor="#e58139"] ;
547 -> 549 ;
550 [label=<num__BMI &le; 30.635<br/>gini = 0.339<br/>samples = 185<br/>value = [145, 40]>, fillcolor="#eca470"] ;
530 -> 550 ;
551 [label=<num__BMI &le; 19.755<br/>gini = 0.313<br/>samples = 170<br/>value = [137, 33]>, fillcolor="#eb9f69"] ;
550 -> 551 ;
552 [label=<num__glucose &le; 88.0<br/>gini = 0.444<br/>samples = 3<br/>value = [1, 2]>, fillcolor="#9ccef2"] ;
551 -> 552 ;
553 [label=<gini = 0.0<br/>samples = 2<br/>value = [0, 2]>, fillcolor="#399de5"] ;
552 -> 553 ;
554 [label=<gini = 0.0<br/>samples = 1<br/>value = [1, 0]>, fillcolor="#e58139"] ;
552 -> 554 ;
555 [label=<num__Diastolic BP &le; 111.5<br/>gini = 0.302<br/>samples = 167<br/>value = [136, 31]>, fillcolor="#eb9e66"] ;
551 -> 555 ;
556 [label=<num__glucose &le; 119.5<br/>gini = 0.296<br/>samples = 166<br/>value = [136, 30]>, fillcolor="#eb9d65"] ;
555 -> 556 ;
557 [label=<num__cigsPerDay &le; 17.0<br/>gini = 0.29<br/>samples = 165<br/>value = [136, 29]>, fillcolor="#eb9c63"] ;
556 -> 557 ;
558 [label=<num__tot cholesterol &le; 210.5<br/>gini = 0.337<br/>samples = 107<br/>value = [84, 23]>, fillcolor="#eca46f"] ;
557 -> 558 ;
559 [label=<num__heartRate &le; 59.0<br/>gini = 0.469<br/>samples = 32<br/>value = [20, 12]>, fillcolor="#f5cdb0"] ;
558 -> 559 ;
560 [label=<gini = 0.0<br/>samples = 3<br/>value = [0, 3]>, fillcolor="#399de5"] ;
559 -> 560 ;
561 [label=<num__Diastolic BP &le; 95.5<br/>gini = 0.428<br/>samples = 29<br/>value = [20, 9]>, fillcolor="#f1ba92"] ;
559 -> 561 ;
562 [label=<num__cigsPerDay &le; 8.0<br/>gini = 0.384<br/>samples = 27<br/>value = [20, 7]>, fillcolor="#eead7e"] ;
561 -> 562 ;
563 [label=<num__Systolic BP &le; 128.5<br/>gini = 0.287<br/>samples = 23<br/>value = [19, 4]>, fillcolor="#ea9c63"] ;
562 -> 563 ;
564 [label=<num__prevalentHyp &le; 0.5<br/>gini = 0.444<br/>samples = 12<br/>value = [8, 4]>, fillcolor="#f2c09c"] ;
563 -> 564 ;
565 [label=<num__tot cholesterol &le; 175.5<br/>gini = 0.5<br/>samples = 8<br/>value = [4, 4]>, fillcolor="#ffffff"] ;
564 -> 565 ;
566 [label=<gini = 0.0<br/>samples = 2<br/>value = [2, 0]>, fillcolor="#e58139"] ;
565 -> 566 ;
567 [label=<num__Systolic BP &le; 121.0<br/>gini = 0.444<br/>samples = 6<br/>value = [2, 4]>, fillcolor="#9ccef2"] ;
565 -> 567 ;
568 [label=<gini = 0.0<br/>samples = 1<br/>value = [1, 0]>, fillcolor="#e58139"] ;
567 -> 568 ;
569 [label=<num__glucose_missing &le; 0.5<br/>gini = 0.32<br/>samples = 5<br/>value = [1, 4]>, fillcolor="#6ab6ec"] ;
567 -> 569 ;
570 [label=<gini = 0.0<br/>samples = 4<br/>value = [0, 4]>, fillcolor="#399de5"] ;
569 -> 570 ;
571 [label=<gini = 0.0<br/>samples = 1<br/>value = [1, 0]>, fillcolor="#e58139"] ;
569 -> 571 ;
572 [label=<gini = 0.0<br/>samples = 4<br/>value = [4, 0]>, fillcolor="#e58139"] ;
564 -> 572 ;
573 [label=<gini = 0.0<br/>samples = 11<br/>value = [11, 0]>, fillcolor="#e58139"] ;
563 -> 573 ;
574 [label=<num__Systolic BP &le; 140.5<br/>gini = 0.375<br/>samples = 4<br/>value = [1, 3]>, fillcolor="#7bbeee"] ;
562 -> 574 ;
575 [label=<gini = 0.0<br/>samples = 3<br/>value = [0, 3]>, fillcolor="#399de5"] ;
574 -> 575 ;
576 [label=<gini = 0.0<br/>samples = 1<br/>value = [1, 0]>, fillcolor="#e58139"] ;
574 -> 576 ;
577 [label=<gini = 0.0<br/>samples = 2<br/>value = [0, 2]>, fillcolor="#399de5"] ;
561 -> 577 ;
578 [label=<num__Diastolic BP &le; 99.5<br/>gini = 0.25<br/>samples = 75<br/>value = [64, 11]>, fillcolor="#e9975b"] ;
558 -> 578 ;
579 [label=<num__BMI &le; 24.26<br/>gini = 0.219<br/>samples = 72<br/>value = [63, 9]>, fillcolor="#e99355"] ;
578 -> 579 ;
580 [label=<num__BMI &le; 24.03<br/>gini = 0.444<br/>samples = 12<br/>value = [8, 4]>, fillcolor="#f2c09c"] ;
579 -> 580 ;
581 [label=<num__Systolic BP &le; 120.5<br/>gini = 0.32<br/>samples = 10<br/>value = [8, 2]>, fillcolor="#eca06a"] ;
580 -> 581 ;
582 [label=<gini = 0.0<br/>samples = 1<br/>value = [0, 1]>, fillcolor="#399de5"] ;
581 -> 582 ;
583 [label=<num__heartRate &le; 73.5<br/>gini = 0.198<br/>samples = 9<br/>value = [8, 1]>, fillcolor="#e89152"] ;
581 -> 583 ;
584 [label=<gini = 0.0<br/>samples = 7<br/>value = [7, 0]>, fillcolor="#e58139"] ;
583 -> 584 ;
585 [label=<num__heartRate &le; 85.5<br/>gini = 0.5<br/>samples = 2<br/>value = [1, 1]>, fillcolor="#ffffff"] ;
583 -> 585 ;
586 [label=<gini = 0.0<br/>samples = 1<br/>value = [0, 1]>, fillcolor="#399de5"] ;
585 -> 586 ;
587 [label=<gini = 0.0<br/>samples = 1<br/>value = [1, 0]>, fillcolor="#e58139"] ;
585 -> 587 ;
588 [label=<gini = 0.0<br/>samples = 2<br/>value = [0, 2]>, fillcolor="#399de5"] ;
580 -> 588 ;
589 [label=<num__glucose &le; 67.5<br/>gini = 0.153<br/>samples = 60<br/>value = [55, 5]>, fillcolor="#e78c4b"] ;
579 -> 589 ;
590 [label=<gini = 0.0<br/>samples = 1<br/>value = [0, 1]>, fillcolor="#399de5"] ;
589 -> 590 ;
591 [label=<num__heartRate &le; 92.5<br/>gini = 0.126<br/>samples = 59<br/>value = [55, 4]>, fillcolor="#e78a47"] ;
589 -> 591 ;
592 [label=<num__tot cholesterol &le; 235.5<br/>gini = 0.1<br/>samples = 57<br/>value = [54, 3]>, fillcolor="#e68844"] ;
591 -> 592 ;
593 [label=<num__tot cholesterol &le; 234.5<br/>gini = 0.198<br/>samples = 27<br/>value = [24, 3]>, fillcolor="#e89152"] ;
592 -> 593 ;
594 [label=<num__Diastolic BP &le; 92.75<br/>gini = 0.142<br/>samples = 26<br/>value = [24, 2]>, fillcolor="#e78c49"] ;
593 -> 594 ;
595 [label=<num__age &le; 60.5<br/>gini = 0.083<br/>samples = 23<br/>value = [22, 1]>, fillcolor="#e68742"] ;
594 -> 595 ;
596 [label=<gini = 0.0<br/>samples = 19<br/>value = [19, 0]>, fillcolor="#e58139"] ;
595 -> 596 ;
597 [label=<num__cigsPerDay &le; 7.5<br/>gini = 0.375<br/>samples = 4<br/>value = [3, 1]>, fillcolor="#eeab7b"] ;
595 -> 597 ;
598 [label=<gini = 0.0<br/>samples = 3<br/>value = [3, 0]>, fillcolor="#e58139"] ;
597 -> 598 ;
599 [label=<gini = 0.0<br/>samples = 1<br/>value = [0, 1]>, fillcolor="#399de5"] ;
597 -> 599 ;
600 [label=<num__Systolic BP &le; 128.0<br/>gini = 0.444<br/>samples = 3<br/>value = [2, 1]>, fillcolor="#f2c09c"] ;
594 -> 600 ;
601 [label=<gini = 0.0<br/>samples = 1<br/>value = [0, 1]>, fillcolor="#399de5"] ;
600 -> 601 ;
602 [label=<gini = 0.0<br/>samples = 2<br/>value = [2, 0]>, fillcolor="#e58139"] ;
600 -> 602 ;
603 [label=<gini = 0.0<br/>samples = 1<br/>value = [0, 1]>, fillcolor="#399de5"] ;
593 -> 603 ;
604 [label=<gini = 0.0<br/>samples = 30<br/>value = [30, 0]>, fillcolor="#e58139"] ;
592 -> 604 ;
605 [label=<num__BMI &le; 26.58<br/>gini = 0.5<br/>samples = 2<br/>value = [1, 1]>, fillcolor="#ffffff"] ;
591 -> 605 ;
606 [label=<gini = 0.0<br/>samples = 1<br/>value = [1, 0]>, fillcolor="#e58139"] ;
605 -> 606 ;
607 [label=<gini = 0.0<br/>samples = 1<br/>value = [0, 1]>, fillcolor="#399de5"] ;
605 -> 607 ;
608 [label=<num__heartRate &le; 81.0<br/>gini = 0.444<br/>samples = 3<br/>value = [1, 2]>, fillcolor="#9ccef2"] ;
578 -> 608 ;
609 [label=<gini = 0.0<br/>samples = 2<br/>value = [0, 2]>, fillcolor="#399de5"] ;
608 -> 609 ;
610 [label=<gini = 0.0<br/>samples = 1<br/>value = [1, 0]>, fillcolor="#e58139"] ;
608 -> 610 ;
611 [label=<num__age &le; 51.5<br/>gini = 0.185<br/>samples = 58<br/>value = [52, 6]>, fillcolor="#e89050"] ;
557 -> 611 ;
612 [label=<num__Systolic BP &le; 133.75<br/>gini = 0.408<br/>samples = 14<br/>value = [10, 4]>, fillcolor="#efb388"] ;
611 -> 612 ;
613 [label=<num__age &le; 50.5<br/>gini = 0.5<br/>samples = 8<br/>value = [4, 4]>, fillcolor="#ffffff"] ;
612 -> 613 ;
614 [label=<num__Diastolic BP &le; 85.0<br/>gini = 0.444<br/>samples = 6<br/>value = [4, 2]>, fillcolor="#f2c09c"] ;
613 -> 614 ;
615 [label=<gini = 0.0<br/>samples = 3<br/>value = [3, 0]>, fillcolor="#e58139"] ;
614 -> 615 ;
616 [label=<num__BP Meds &le; 0.5<br/>gini = 0.444<br/>samples = 3<br/>value = [1, 2]>, fillcolor="#9ccef2"] ;
614 -> 616 ;
617 [label=<gini = 0.0<br/>samples = 2<br/>value = [0, 2]>, fillcolor="#399de5"] ;
616 -> 617 ;
618 [label=<gini = 0.0<br/>samples = 1<br/>value = [1, 0]>, fillcolor="#e58139"] ;
616 -> 618 ;
619 [label=<gini = 0.0<br/>samples = 2<br/>value = [0, 2]>, fillcolor="#399de5"] ;
613 -> 619 ;
620 [label=<gini = 0.0<br/>samples = 6<br/>value = [6, 0]>, fillcolor="#e58139"] ;
612 -> 620 ;
621 [label=<num__glucose &le; 113.0<br/>gini = 0.087<br/>samples = 44<br/>value = [42, 2]>, fillcolor="#e68742"] ;
611 -> 621 ;
622 [label=<num__age &le; 62.5<br/>gini = 0.046<br/>samples = 42<br/>value = [41, 1]>, fillcolor="#e6843e"] ;
621 -> 622 ;
623 [label=<gini = 0.0<br/>samples = 35<br/>value = [35, 0]>, fillcolor="#e58139"] ;
622 -> 623 ;
624 [label=<num__BMI &le; 25.38<br/>gini = 0.245<br/>samples = 7<br/>value = [6, 1]>, fillcolor="#e9965a"] ;
622 -> 624 ;
625 [label=<gini = 0.0<br/>samples = 6<br/>value = [6, 0]>, fillcolor="#e58139"] ;
624 -> 625 ;
626 [label=<gini = 0.0<br/>samples = 1<br/>value = [0, 1]>, fillcolor="#399de5"] ;
624 -> 626 ;
627 [label=<num__Diastolic BP &le; 86.5<br/>gini = 0.5<br/>samples = 2<br/>value = [1, 1]>, fillcolor="#ffffff"] ;
621 -> 627 ;
628 [label=<gini = 0.0<br/>samples = 1<br/>value = [0, 1]>, fillcolor="#399de5"] ;
627 -> 628 ;
629 [label=<gini = 0.0<br/>samples = 1<br/>value = [1, 0]>, fillcolor="#e58139"] ;
627 -> 629 ;
630 [label=<gini = 0.0<br/>samples = 1<br/>value = [0, 1]>, fillcolor="#399de5"] ;
556 -> 630 ;
631 [label=<gini = 0.0<br/>samples = 1<br/>value = [0, 1]>, fillcolor="#399de5"] ;
555 -> 631 ;
632 [label=<num__education &le; 1.5<br/>gini = 0.498<br/>samples = 15<br/>value = [8, 7]>, fillcolor="#fcefe6"] ;
550 -> 632 ;
633 [label=<num__tot cholesterol &le; 248.5<br/>gini = 0.245<br/>samples = 7<br/>value = [6, 1]>, fillcolor="#e9965a"] ;
632 -> 633 ;
634 [label=<gini = 0.0<br/>samples = 6<br/>value = [6, 0]>, fillcolor="#e58139"] ;
633 -> 634 ;
635 [label=<gini = 0.0<br/>samples = 1<br/>value = [0, 1]>, fillcolor="#399de5"] ;
633 -> 635 ;
636 [label=<num__heartRate &le; 63.0<br/>gini = 0.375<br/>samples = 8<br/>value = [2, 6]>, fillcolor="#7bbeee"] ;
632 -> 636 ;
637 [label=<gini = 0.0<br/>samples = 1<br/>value = [1, 0]>, fillcolor="#e58139"] ;
636 -> 637 ;
638 [label=<num__age &le; 58.5<br/>gini = 0.245<br/>samples = 7<br/>value = [1, 6]>, fillcolor="#5aade9"] ;
636 -> 638 ;
639 [label=<gini = 0.0<br/>samples = 5<br/>value = [0, 5]>, fillcolor="#399de5"] ;
638 -> 639 ;
640 [label=<num__Diastolic BP &le; 89.0<br/>gini = 0.5<br/>samples = 2<br/>value = [1, 1]>, fillcolor="#ffffff"] ;
638 -> 640 ;
641 [label=<gini = 0.0<br/>samples = 1<br/>value = [1, 0]>, fillcolor="#e58139"] ;
640 -> 641 ;
642 [label=<gini = 0.0<br/>samples = 1<br/>value = [0, 1]>, fillcolor="#399de5"] ;
640 -> 642 ;
643 [label=<gini = 0.0<br/>samples = 19<br/>value = [19, 0]>, fillcolor="#e58139"] ;
529 -> 643 ;
644 [label=<num__heartRate &le; 66.5<br/>gini = 0.5<br/>samples = 18<br/>value = [9, 9]>, fillcolor="#ffffff"] ;
528 -> 644 ;
645 [label=<num__Diastolic BP &le; 77.5<br/>gini = 0.245<br/>samples = 7<br/>value = [1, 6]>, fillcolor="#5aade9"] ;
644 -> 645 ;
646 [label=<gini = 0.0<br/>samples = 1<br/>value = [1, 0]>, fillcolor="#e58139"] ;
645 -> 646 ;
647 [label=<gini = 0.0<br/>samples = 6<br/>value = [0, 6]>, fillcolor="#399de5"] ;
645 -> 647 ;
648 [label=<num__education &le; 3.5<br/>gini = 0.397<br/>samples = 11<br/>value = [8, 3]>, fillcolor="#efb083"] ;
644 -> 648 ;
649 [label=<num__Systolic BP &le; 135.75<br/>gini = 0.198<br/>samples = 9<br/>value = [8, 1]>, fillcolor="#e89152"] ;
648 -> 649 ;
650 [label=<gini = 0.0<br/>samples = 7<br/>value = [7, 0]>, fillcolor="#e58139"] ;
649 -> 650 ;
651 [label=<num__cigsPerDay &le; 7.5<br/>gini = 0.5<br/>samples = 2<br/>value = [1, 1]>, fillcolor="#ffffff"] ;
649 -> 651 ;
652 [label=<gini = 0.0<br/>samples = 1<br/>value = [1, 0]>, fillcolor="#e58139"] ;
651 -> 652 ;
653 [label=<gini = 0.0<br/>samples = 1<br/>value = [0, 1]>, fillcolor="#399de5"] ;
651 -> 653 ;
654 [label=<gini = 0.0<br/>samples = 2<br/>value = [0, 2]>, fillcolor="#399de5"] ;
648 -> 654 ;
655 [label=<num__Diastolic BP &le; 81.5<br/>gini = 0.484<br/>samples = 17<br/>value = [7, 10]>, fillcolor="#c4e2f7"] ;
309 -> 655 ;
656 [label=<cat__Gender_Female &le; 0.5<br/>gini = 0.408<br/>samples = 14<br/>value = [4, 10]>, fillcolor="#88c4ef"] ;
655 -> 656 ;
657 [label=<num__BMI &le; 23.48<br/>gini = 0.198<br/>samples = 9<br/>value = [1, 8]>, fillcolor="#52a9e8"] ;
656 -> 657 ;
658 [label=<num__Diastolic BP &le; 71.75<br/>gini = 0.5<br/>samples = 2<br/>value = [1, 1]>, fillcolor="#ffffff"] ;
657 -> 658 ;
659 [label=<gini = 0.0<br/>samples = 1<br/>value = [0, 1]>, fillcolor="#399de5"] ;
658 -> 659 ;
660 [label=<gini = 0.0<br/>samples = 1<br/>value = [1, 0]>, fillcolor="#e58139"] ;
658 -> 660 ;
661 [label=<gini = 0.0<br/>samples = 7<br/>value = [0, 7]>, fillcolor="#399de5"] ;
657 -> 661 ;
662 [label=<num__tot cholesterol &le; 266.5<br/>gini = 0.48<br/>samples = 5<br/>value = [3, 2]>, fillcolor="#f6d5bd"] ;
656 -> 662 ;
663 [label=<gini = 0.0<br/>samples = 3<br/>value = [3, 0]>, fillcolor="#e58139"] ;
662 -> 663 ;
664 [label=<gini = 0.0<br/>samples = 2<br/>value = [0, 2]>, fillcolor="#399de5"] ;
662 -> 664 ;
665 [label=<gini = 0.0<br/>samples = 3<br/>value = [3, 0]>, fillcolor="#e58139"] ;
655 -> 665 ;
666 [label=<num__cigsPerDay &le; 32.5<br/>gini = 0.432<br/>samples = 541<br/>value = [370, 171]>, fillcolor="#f1bb95"] ;
308 -> 666 ;
667 [label=<cat__Gender_Male &le; 0.5<br/>gini = 0.42<br/>samples = 526<br/>value = [368, 158]>, fillcolor="#f0b78e"] ;
666 -> 667 ;
668 [label=<num__age &le; 56.5<br/>gini = 0.378<br/>samples = 359<br/>value = [268, 91]>, fillcolor="#eeac7c"] ;
667 -> 668 ;
669 [label=<num__glucose &le; 122.0<br/>gini = 0.261<br/>samples = 136<br/>value = [115, 21]>, fillcolor="#ea985d"] ;
668 -> 669 ;
670 [label=<num__prevalentStroke &le; 0.5<br/>gini = 0.219<br/>samples = 128<br/>value = [112, 16]>, fillcolor="#e99355"] ;
669 -> 670 ;
671 [label=<num__Diastolic BP &le; 72.5<br/>gini = 0.208<br/>samples = 127<br/>value = [112, 15]>, fillcolor="#e89254"] ;
670 -> 671 ;
672 [label=<gini = 0.0<br/>samples = 1<br/>value = [0, 1]>, fillcolor="#399de5"] ;
671 -> 672 ;
673 [label=<num__education &le; 3.5<br/>gini = 0.198<br/>samples = 126<br/>value = [112, 14]>, fillcolor="#e89152"] ;
671 -> 673 ;
674 [label=<num__BMI &le; 26.345<br/>gini = 0.159<br/>samples = 115<br/>value = [105, 10]>, fillcolor="#e78d4c"] ;
673 -> 674 ;
675 [label=<num__tot cholesterol &le; 244.0<br/>gini = 0.256<br/>samples = 53<br/>value = [45, 8]>, fillcolor="#ea975c"] ;
674 -> 675 ;
676 [label=<num__Systolic BP &le; 164.0<br/>gini = 0.408<br/>samples = 21<br/>value = [15, 6]>, fillcolor="#efb388"] ;
675 -> 676 ;
677 [label=<num__tot cholesterol &le; 233.5<br/>gini = 0.245<br/>samples = 14<br/>value = [12, 2]>, fillcolor="#e9965a"] ;
676 -> 677 ;
678 [label=<gini = 0.0<br/>samples = 11<br/>value = [11, 0]>, fillcolor="#e58139"] ;
677 -> 678 ;
679 [label=<num__Systolic BP &le; 146.5<br/>gini = 0.444<br/>samples = 3<br/>value = [1, 2]>, fillcolor="#9ccef2"] ;
677 -> 679 ;
680 [label=<gini = 0.0<br/>samples = 1<br/>value = [1, 0]>, fillcolor="#e58139"] ;
679 -> 680 ;
681 [label=<gini = 0.0<br/>samples = 2<br/>value = [0, 2]>, fillcolor="#399de5"] ;
679 -> 681 ;
682 [label=<num__Systolic BP &le; 171.25<br/>gini = 0.49<br/>samples = 7<br/>value = [3, 4]>, fillcolor="#cee6f8"] ;
676 -> 682 ;
683 [label=<gini = 0.0<br/>samples = 3<br/>value = [0, 3]>, fillcolor="#399de5"] ;
682 -> 683 ;
684 [label=<num__Diastolic BP &le; 108.25<br/>gini = 0.375<br/>samples = 4<br/>value = [3, 1]>, fillcolor="#eeab7b"] ;
682 -> 684 ;
685 [label=<gini = 0.0<br/>samples = 3<br/>value = [3, 0]>, fillcolor="#e58139"] ;
684 -> 685 ;
686 [label=<gini = 0.0<br/>samples = 1<br/>value = [0, 1]>, fillcolor="#399de5"] ;
684 -> 686 ;
687 [label=<num__BMI &le; 26.185<br/>gini = 0.117<br/>samples = 32<br/>value = [30, 2]>, fillcolor="#e78946"] ;
675 -> 687 ;
688 [label=<num__cigsPerDay &le; 17.5<br/>gini = 0.064<br/>samples = 30<br/>value = [29, 1]>, fillcolor="#e68540"] ;
687 -> 688 ;
689 [label=<gini = 0.0<br/>samples = 25<br/>value = [25, 0]>, fillcolor="#e58139"] ;
688 -> 689 ;
690 [label=<num__age &le; 55.0<br/>gini = 0.32<br/>samples = 5<br/>value = [4, 1]>, fillcolor="#eca06a"] ;
688 -> 690 ;
691 [label=<gini = 0.0<br/>samples = 4<br/>value = [4, 0]>, fillcolor="#e58139"] ;
690 -> 691 ;
692 [label=<gini = 0.0<br/>samples = 1<br/>value = [0, 1]>, fillcolor="#399de5"] ;
690 -> 692 ;
693 [label=<num__age &le; 53.0<br/>gini = 0.5<br/>samples = 2<br/>value = [1, 1]>, fillcolor="#ffffff"] ;
687 -> 693 ;
694 [label=<gini = 0.0<br/>samples = 1<br/>value = [1, 0]>, fillcolor="#e58139"] ;
693 -> 694 ;
695 [label=<gini = 0.0<br/>samples = 1<br/>value = [0, 1]>, fillcolor="#399de5"] ;
693 -> 695 ;
696 [label=<num__age &le; 49.5<br/>gini = 0.062<br/>samples = 62<br/>value = [60, 2]>, fillcolor="#e68540"] ;
674 -> 696 ;
697 [label=<num__glucose &le; 62.5<br/>gini = 0.5<br/>samples = 2<br/>value = [1, 1]>, fillcolor="#ffffff"] ;
696 -> 697 ;
698 [label=<gini = 0.0<br/>samples = 1<br/>value = [1, 0]>, fillcolor="#e58139"] ;
697 -> 698 ;
699 [label=<gini = 0.0<br/>samples = 1<br/>value = [0, 1]>, fillcolor="#399de5"] ;
697 -> 699 ;
700 [label=<num__Diastolic BP &le; 117.5<br/>gini = 0.033<br/>samples = 60<br/>value = [59, 1]>, fillcolor="#e5833c"] ;
696 -> 700 ;
701 [label=<gini = 0.0<br/>samples = 58<br/>value = [58, 0]>, fillcolor="#e58139"] ;
700 -> 701 ;
702 [label=<num__Systolic BP &le; 185.5<br/>gini = 0.5<br/>samples = 2<br/>value = [1, 1]>, fillcolor="#ffffff"] ;
700 -> 702 ;
703 [label=<gini = 0.0<br/>samples = 1<br/>value = [0, 1]>, fillcolor="#399de5"] ;
702 -> 703 ;
704 [label=<gini = 0.0<br/>samples = 1<br/>value = [1, 0]>, fillcolor="#e58139"] ;
702 -> 704 ;
705 [label=<num__glucose &le; 71.5<br/>gini = 0.463<br/>samples = 11<br/>value = [7, 4]>, fillcolor="#f4c9aa"] ;
673 -> 705 ;
706 [label=<gini = 0.0<br/>samples = 4<br/>value = [4, 0]>, fillcolor="#e58139"] ;
705 -> 706 ;
707 [label=<num__glucose &le; 78.5<br/>gini = 0.49<br/>samples = 7<br/>value = [3, 4]>, fillcolor="#cee6f8"] ;
705 -> 707 ;
708 [label=<gini = 0.0<br/>samples = 4<br/>value = [0, 4]>, fillcolor="#399de5"] ;
707 -> 708 ;
709 [label=<gini = 0.0<br/>samples = 3<br/>value = [3, 0]>, fillcolor="#e58139"] ;
707 -> 709 ;
710 [label=<gini = 0.0<br/>samples = 1<br/>value = [0, 1]>, fillcolor="#399de5"] ;
670 -> 710 ;
711 [label=<num__tot cholesterol &le; 254.0<br/>gini = 0.469<br/>samples = 8<br/>value = [3, 5]>, fillcolor="#b0d8f5"] ;
669 -> 711 ;
712 [label=<gini = 0.0<br/>samples = 3<br/>value = [0, 3]>, fillcolor="#399de5"] ;
711 -> 712 ;
713 [label=<num__age &le; 53.5<br/>gini = 0.48<br/>samples = 5<br/>value = [3, 2]>, fillcolor="#f6d5bd"] ;
711 -> 713 ;
714 [label=<num__Diastolic BP &le; 106.0<br/>gini = 0.444<br/>samples = 3<br/>value = [1, 2]>, fillcolor="#9ccef2"] ;
713 -> 714 ;
715 [label=<gini = 0.0<br/>samples = 2<br/>value = [0, 2]>, fillcolor="#399de5"] ;
714 -> 715 ;
716 [label=<gini = 0.0<br/>samples = 1<br/>value = [1, 0]>, fillcolor="#e58139"] ;
714 -> 716 ;
717 [label=<gini = 0.0<br/>samples = 2<br/>value = [2, 0]>, fillcolor="#e58139"] ;
713 -> 717 ;
718 [label=<num__Diastolic BP &le; 85.75<br/>gini = 0.431<br/>samples = 223<br/>value = [153, 70]>, fillcolor="#f1bb94"] ;
668 -> 718 ;
719 [label=<num__glucose &le; 69.5<br/>gini = 0.498<br/>samples = 53<br/>value = [28, 25]>, fillcolor="#fcf2ea"] ;
718 -> 719 ;
720 [label=<gini = 0.0<br/>samples = 6<br/>value = [6, 0]>, fillcolor="#e58139"] ;
719 -> 720 ;
721 [label=<num__age &le; 66.5<br/>gini = 0.498<br/>samples = 47<br/>value = [22, 25]>, fillcolor="#e7f3fc"] ;
719 -> 721 ;
722 [label=<num__heartRate &le; 63.5<br/>gini = 0.487<br/>samples = 43<br/>value = [18, 25]>, fillcolor="#c8e4f8"] ;
721 -> 722 ;
723 [label=<gini = 0.0<br/>samples = 3<br/>value = [3, 0]>, fillcolor="#e58139"] ;
722 -> 723 ;
724 [label=<num__BMI &le; 21.165<br/>gini = 0.469<br/>samples = 40<br/>value = [15, 25]>, fillcolor="#b0d8f5"] ;
722 -> 724 ;
725 [label=<gini = 0.0<br/>samples = 5<br/>value = [0, 5]>, fillcolor="#399de5"] ;
724 -> 725 ;
726 [label=<num__glucose &le; 110.5<br/>gini = 0.49<br/>samples = 35<br/>value = [15, 20]>, fillcolor="#cee6f8"] ;
724 -> 726 ;
727 [label=<num__Systolic BP &le; 148.5<br/>gini = 0.499<br/>samples = 31<br/>value = [15, 16]>, fillcolor="#f3f9fd"] ;
726 -> 727 ;
728 [label=<num__age &le; 59.0<br/>gini = 0.346<br/>samples = 9<br/>value = [2, 7]>, fillcolor="#72b9ec"] ;
727 -> 728 ;
729 [label=<num__cigsPerDay &le; 0.5<br/>gini = 0.444<br/>samples = 3<br/>value = [2, 1]>, fillcolor="#f2c09c"] ;
728 -> 729 ;
730 [label=<gini = 0.0<br/>samples = 2<br/>value = [2, 0]>, fillcolor="#e58139"] ;
729 -> 730 ;
731 [label=<gini = 0.0<br/>samples = 1<br/>value = [0, 1]>, fillcolor="#399de5"] ;
729 -> 731 ;
732 [label=<gini = 0.0<br/>samples = 6<br/>value = [0, 6]>, fillcolor="#399de5"] ;
728 -> 732 ;
733 [label=<num__tot cholesterol &le; 316.0<br/>gini = 0.483<br/>samples = 22<br/>value = [13, 9]>, fillcolor="#f7d8c2"] ;
727 -> 733 ;
734 [label=<num__cigsPerDay &le; 4.0<br/>gini = 0.432<br/>samples = 19<br/>value = [13, 6]>, fillcolor="#f1bb94"] ;
733 -> 734 ;
735 [label=<num__BMI &le; 23.815<br/>gini = 0.305<br/>samples = 16<br/>value = [13, 3]>, fillcolor="#eb9e67"] ;
734 -> 735 ;
736 [label=<num__glucose &le; 78.5<br/>gini = 0.444<br/>samples = 3<br/>value = [1, 2]>, fillcolor="#9ccef2"] ;
735 -> 736 ;
737 [label=<gini = 0.0<br/>samples = 2<br/>value = [0, 2]>, fillcolor="#399de5"] ;
736 -> 737 ;
738 [label=<gini = 0.0<br/>samples = 1<br/>value = [1, 0]>, fillcolor="#e58139"] ;
736 -> 738 ;
739 [label=<num__age &le; 64.5<br/>gini = 0.142<br/>samples = 13<br/>value = [12, 1]>, fillcolor="#e78c49"] ;
735 -> 739 ;
740 [label=<gini = 0.0<br/>samples = 11<br/>value = [11, 0]>, fillcolor="#e58139"] ;
739 -> 740 ;
741 [label=<num__BMI &le; 27.65<br/>gini = 0.5<br/>samples = 2<br/>value = [1, 1]>, fillcolor="#ffffff"] ;
739 -> 741 ;
742 [label=<gini = 0.0<br/>samples = 1<br/>value = [1, 0]>, fillcolor="#e58139"] ;
741 -> 742 ;
743 [label=<gini = 0.0<br/>samples = 1<br/>value = [0, 1]>, fillcolor="#399de5"] ;
741 -> 743 ;
744 [label=<gini = 0.0<br/>samples = 3<br/>value = [0, 3]>, fillcolor="#399de5"] ;
734 -> 744 ;
745 [label=<gini = 0.0<br/>samples = 3<br/>value = [0, 3]>, fillcolor="#399de5"] ;
733 -> 745 ;
746 [label=<gini = 0.0<br/>samples = 4<br/>value = [0, 4]>, fillcolor="#399de5"] ;
726 -> 746 ;
747 [label=<gini = 0.0<br/>samples = 4<br/>value = [4, 0]>, fillcolor="#e58139"] ;
721 -> 747 ;
748 [label=<num__tot cholesterol &le; 197.0<br/>gini = 0.389<br/>samples = 170<br/>value = [125.0, 45.0]>, fillcolor="#eeae80"] ;
718 -> 748 ;
749 [label=<num__heartRate &le; 87.0<br/>gini = 0.473<br/>samples = 13<br/>value = [5, 8]>, fillcolor="#b5daf5"] ;
748 -> 749 ;
750 [label=<num__diabetes &le; 0.5<br/>gini = 0.32<br/>samples = 10<br/>value = [2, 8]>, fillcolor="#6ab6ec"] ;
749 -> 750 ;
751 [label=<gini = 0.0<br/>samples = 8<br/>value = [0, 8]>, fillcolor="#399de5"] ;
750 -> 751 ;
752 [label=<gini = 0.0<br/>samples = 2<br/>value = [2, 0]>, fillcolor="#e58139"] ;
750 -> 752 ;
753 [label=<gini = 0.0<br/>samples = 3<br/>value = [3, 0]>, fillcolor="#e58139"] ;
749 -> 753 ;
754 [label=<num__glucose &le; 174.04<br/>gini = 0.36<br/>samples = 157<br/>value = [120.0, 37.0]>, fillcolor="#eda876"] ;
748 -> 754 ;
755 [label=<num__Diastolic BP &le; 99.5<br/>gini = 0.346<br/>samples = 153<br/>value = [119, 34]>, fillcolor="#eca572"] ;
754 -> 755 ;
756 [label=<num__age &le; 64.5<br/>gini = 0.28<br/>samples = 95<br/>value = [79, 16]>, fillcolor="#ea9b61"] ;
755 -> 756 ;
757 [label=<num__glucose &le; 79.5<br/>gini = 0.214<br/>samples = 74<br/>value = [65, 9]>, fillcolor="#e99254"] ;
756 -> 757 ;
758 [label=<num__education &le; 2.5<br/>gini = 0.35<br/>samples = 31<br/>value = [24, 7]>, fillcolor="#eda673"] ;
757 -> 758 ;
759 [label=<num__age &le; 57.5<br/>gini = 0.293<br/>samples = 28<br/>value = [23, 5]>, fillcolor="#eb9c64"] ;
758 -> 759 ;
760 [label=<gini = 0.0<br/>samples = 1<br/>value = [0, 1]>, fillcolor="#399de5"] ;
759 -> 760 ;
761 [label=<num__cigsPerDay &le; 12.0<br/>gini = 0.252<br/>samples = 27<br/>value = [23, 4]>, fillcolor="#ea975b"] ;
759 -> 761 ;
762 [label=<num__heartRate &le; 61.0<br/>gini = 0.165<br/>samples = 22<br/>value = [20, 2]>, fillcolor="#e88e4d"] ;
761 -> 762 ;
763 [label=<num__age &le; 62.5<br/>gini = 0.5<br/>samples = 2<br/>value = [1, 1]>, fillcolor="#ffffff"] ;
762 -> 763 ;
764 [label=<gini = 0.0<br/>samples = 1<br/>value = [1, 0]>, fillcolor="#e58139"] ;
763 -> 764 ;
765 [label=<gini = 0.0<br/>samples = 1<br/>value = [0, 1]>, fillcolor="#399de5"] ;
763 -> 765 ;
766 [label=<num__tot cholesterol &le; 318.5<br/>gini = 0.095<br/>samples = 20<br/>value = [19, 1]>, fillcolor="#e68843"] ;
762 -> 766 ;
767 [label=<gini = 0.0<br/>samples = 18<br/>value = [18, 0]>, fillcolor="#e58139"] ;
766 -> 767 ;
768 [label=<num__glucose_missing &le; 0.5<br/>gini = 0.5<br/>samples = 2<br/>value = [1, 1]>, fillcolor="#ffffff"] ;
766 -> 768 ;
769 [label=<gini = 0.0<br/>samples = 1<br/>value = [1, 0]>, fillcolor="#e58139"] ;
768 -> 769 ;
770 [label=<gini = 0.0<br/>samples = 1<br/>value = [0, 1]>, fillcolor="#399de5"] ;
768 -> 770 ;
771 [label=<num__Systolic BP &le; 169.5<br/>gini = 0.48<br/>samples = 5<br/>value = [3, 2]>, fillcolor="#f6d5bd"] ;
761 -> 771 ;
772 [label=<num__age &le; 58.5<br/>gini = 0.444<br/>samples = 3<br/>value = [1, 2]>, fillcolor="#9ccef2"] ;
771 -> 772 ;
773 [label=<gini = 0.0<br/>samples = 1<br/>value = [1, 0]>, fillcolor="#e58139"] ;
772 -> 773 ;
774 [label=<gini = 0.0<br/>samples = 2<br/>value = [0, 2]>, fillcolor="#399de5"] ;
772 -> 774 ;
775 [label=<gini = 0.0<br/>samples = 2<br/>value = [2, 0]>, fillcolor="#e58139"] ;
771 -> 775 ;
776 [label=<num__heartRate &le; 64.5<br/>gini = 0.444<br/>samples = 3<br/>value = [1, 2]>, fillcolor="#9ccef2"] ;
758 -> 776 ;
777 [label=<gini = 0.0<br/>samples = 1<br/>value = [1, 0]>, fillcolor="#e58139"] ;
776 -> 777 ;
778 [label=<gini = 0.0<br/>samples = 2<br/>value = [0, 2]>, fillcolor="#399de5"] ;
776 -> 778 ;
779 [label=<num__BMI &le; 26.295<br/>gini = 0.089<br/>samples = 43<br/>value = [41, 2]>, fillcolor="#e68743"] ;
757 -> 779 ;
780 [label=<num__BMI &le; 26.145<br/>gini = 0.245<br/>samples = 14<br/>value = [12, 2]>, fillcolor="#e9965a"] ;
779 -> 780 ;
781 [label=<num__prevalentHyp &le; 0.5<br/>gini = 0.142<br/>samples = 13<br/>value = [12, 1]>, fillcolor="#e78c49"] ;
780 -> 781 ;
782 [label=<gini = 0.0<br/>samples = 1<br/>value = [0, 1]>, fillcolor="#399de5"] ;
781 -> 782 ;
783 [label=<gini = 0.0<br/>samples = 12<br/>value = [12, 0]>, fillcolor="#e58139"] ;
781 -> 783 ;
784 [label=<gini = 0.0<br/>samples = 1<br/>value = [0, 1]>, fillcolor="#399de5"] ;
780 -> 784 ;
785 [label=<gini = 0.0<br/>samples = 29<br/>value = [29, 0]>, fillcolor="#e58139"] ;
779 -> 785 ;
786 [label=<num__Diastolic BP &le; 88.5<br/>gini = 0.444<br/>samples = 21<br/>value = [14, 7]>, fillcolor="#f2c09c"] ;
756 -> 786 ;
787 [label=<gini = 0.0<br/>samples = 2<br/>value = [0, 2]>, fillcolor="#399de5"] ;
786 -> 787 ;
788 [label=<num__Systolic BP &le; 145.5<br/>gini = 0.388<br/>samples = 19<br/>value = [14, 5]>, fillcolor="#eeae80"] ;
786 -> 788 ;
789 [label=<gini = 0.0<br/>samples = 1<br/>value = [0, 1]>, fillcolor="#399de5"] ;
788 -> 789 ;
790 [label=<num__glucose &le; 58.5<br/>gini = 0.346<br/>samples = 18<br/>value = [14, 4]>, fillcolor="#eca572"] ;
788 -> 790 ;
791 [label=<gini = 0.0<br/>samples = 1<br/>value = [0, 1]>, fillcolor="#399de5"] ;
790 -> 791 ;
792 [label=<num__education &le; 1.5<br/>gini = 0.291<br/>samples = 17<br/>value = [14, 3]>, fillcolor="#eb9c63"] ;
790 -> 792 ;
793 [label=<gini = 0.0<br/>samples = 10<br/>value = [10, 0]>, fillcolor="#e58139"] ;
792 -> 793 ;
794 [label=<num__glucose &le; 78.0<br/>gini = 0.49<br/>samples = 7<br/>value = [4, 3]>, fillcolor="#f8e0ce"] ;
792 -> 794 ;
795 [label=<gini = 0.0<br/>samples = 4<br/>value = [4, 0]>, fillcolor="#e58139"] ;
794 -> 795 ;
796 [label=<gini = 0.0<br/>samples = 3<br/>value = [0, 3]>, fillcolor="#399de5"] ;
794 -> 796 ;
797 [label=<num__glucose &le; 84.0<br/>gini = 0.428<br/>samples = 58<br/>value = [40, 18]>, fillcolor="#f1ba92"] ;
755 -> 797 ;
798 [label=<num__heartRate &le; 91.5<br/>gini = 0.343<br/>samples = 41<br/>value = [32, 9]>, fillcolor="#eca471"] ;
797 -> 798 ;
799 [label=<num__BMI &le; 21.93<br/>gini = 0.245<br/>samples = 35<br/>value = [30, 5]>, fillcolor="#e9965a"] ;
798 -> 799 ;
800 [label=<num__glucose &le; 71.0<br/>gini = 0.444<br/>samples = 3<br/>value = [1, 2]>, fillcolor="#9ccef2"] ;
799 -> 800 ;
801 [label=<gini = 0.0<br/>samples = 2<br/>value = [0, 2]>, fillcolor="#399de5"] ;
800 -> 801 ;
802 [label=<gini = 0.0<br/>samples = 1<br/>value = [1, 0]>, fillcolor="#e58139"] ;
800 -> 802 ;
803 [label=<num__Diastolic BP &le; 115.25<br/>gini = 0.17<br/>samples = 32<br/>value = [29, 3]>, fillcolor="#e88e4d"] ;
799 -> 803 ;
804 [label=<num__age &le; 63.0<br/>gini = 0.074<br/>samples = 26<br/>value = [25, 1]>, fillcolor="#e68641"] ;
803 -> 804 ;
805 [label=<gini = 0.0<br/>samples = 22<br/>value = [22, 0]>, fillcolor="#e58139"] ;
804 -> 805 ;
806 [label=<num__Systolic BP &le; 163.5<br/>gini = 0.375<br/>samples = 4<br/>value = [3, 1]>, fillcolor="#eeab7b"] ;
804 -> 806 ;
807 [label=<gini = 0.0<br/>samples = 2<br/>value = [2, 0]>, fillcolor="#e58139"] ;
806 -> 807 ;
808 [label=<num__BMI &le; 36.163<br/>gini = 0.5<br/>samples = 2<br/>value = [1, 1]>, fillcolor="#ffffff"] ;
806 -> 808 ;
809 [label=<gini = 0.0<br/>samples = 1<br/>value = [0, 1]>, fillcolor="#399de5"] ;
808 -> 809 ;
810 [label=<gini = 0.0<br/>samples = 1<br/>value = [1, 0]>, fillcolor="#e58139"] ;
808 -> 810 ;
811 [label=<num__tot cholesterol &le; 256.0<br/>gini = 0.444<br/>samples = 6<br/>value = [4, 2]>, fillcolor="#f2c09c"] ;
803 -> 811 ;
812 [label=<gini = 0.0<br/>samples = 3<br/>value = [3, 0]>, fillcolor="#e58139"] ;
811 -> 812 ;
813 [label=<num__age &le; 60.5<br/>gini = 0.444<br/>samples = 3<br/>value = [1, 2]>, fillcolor="#9ccef2"] ;
811 -> 813 ;
814 [label=<gini = 0.0<br/>samples = 1<br/>value = [1, 0]>, fillcolor="#e58139"] ;
813 -> 814 ;
815 [label=<gini = 0.0<br/>samples = 2<br/>value = [0, 2]>, fillcolor="#399de5"] ;
813 -> 815 ;
816 [label=<num__Systolic BP &le; 184.0<br/>gini = 0.444<br/>samples = 6<br/>value = [2, 4]>, fillcolor="#9ccef2"] ;
798 -> 816 ;
817 [label=<gini = 0.0<br/>samples = 3<br/>value = [0, 3]>, fillcolor="#399de5"] ;
816 -> 817 ;
818 [label=<num__Systolic BP &le; 198.0<br/>gini = 0.444<br/>samples = 3<br/>value = [2, 1]>, fillcolor="#f2c09c"] ;
816 -> 818 ;
819 [label=<gini = 0.0<br/>samples = 2<br/>value = [2, 0]>, fillcolor="#e58139"] ;
818 -> 819 ;
820 [label=<gini = 0.0<br/>samples = 1<br/>value = [0, 1]>, fillcolor="#399de5"] ;
818 -> 820 ;
821 [label=<num__tot cholesterol &le; 232.0<br/>gini = 0.498<br/>samples = 17<br/>value = [8, 9]>, fillcolor="#e9f4fc"] ;
797 -> 821 ;
822 [label=<gini = 0.0<br/>samples = 3<br/>value = [3, 0]>, fillcolor="#e58139"] ;
821 -> 822 ;
823 [label=<num__heartRate &le; 91.0<br/>gini = 0.459<br/>samples = 14<br/>value = [5, 9]>, fillcolor="#a7d3f3"] ;
821 -> 823 ;
824 [label=<num__heartRate &le; 71.0<br/>gini = 0.375<br/>samples = 12<br/>value = [3, 9]>, fillcolor="#7bbeee"] ;
823 -> 824 ;
825 [label=<gini = 0.0<br/>samples = 1<br/>value = [1, 0]>, fillcolor="#e58139"] ;
824 -> 825 ;
826 [label=<num__heartRate &le; 77.5<br/>gini = 0.298<br/>samples = 11<br/>value = [2, 9]>, fillcolor="#65b3eb"] ;
824 -> 826 ;
827 [label=<gini = 0.0<br/>samples = 5<br/>value = [0, 5]>, fillcolor="#399de5"] ;
826 -> 827 ;
828 [label=<num__tot cholesterol &le; 252.5<br/>gini = 0.444<br/>samples = 6<br/>value = [2, 4]>, fillcolor="#9ccef2"] ;
826 -> 828 ;
829 [label=<gini = 0.0<br/>samples = 3<br/>value = [0, 3]>, fillcolor="#399de5"] ;
828 -> 829 ;
830 [label=<num__tot cholesterol &le; 325.605<br/>gini = 0.444<br/>samples = 3<br/>value = [2, 1]>, fillcolor="#f2c09c"] ;
828 -> 830 ;
831 [label=<gini = 0.0<br/>samples = 2<br/>value = [2, 0]>, fillcolor="#e58139"] ;
830 -> 831 ;
832 [label=<gini = 0.0<br/>samples = 1<br/>value = [0, 1]>, fillcolor="#399de5"] ;
830 -> 832 ;
833 [label=<gini = 0.0<br/>samples = 2<br/>value = [2, 0]>, fillcolor="#e58139"] ;
823 -> 833 ;
834 [label=<num__tot cholesterol &le; 238.5<br/>gini = 0.375<br/>samples = 4<br/>value = [1, 3]>, fillcolor="#7bbeee"] ;
754 -> 834 ;
835 [label=<gini = 0.0<br/>samples = 1<br/>value = [1, 0]>, fillcolor="#e58139"] ;
834 -> 835 ;
836 [label=<gini = 0.0<br/>samples = 3<br/>value = [0, 3]>, fillcolor="#399de5"] ;
834 -> 836 ;
837 [label=<num__Systolic BP &le; 162.25<br/>gini = 0.48<br/>samples = 167<br/>value = [100.0, 67.0]>, fillcolor="#f6d5be"] ;
667 -> 837 ;
838 [label=<num__heartRate &le; 99.0<br/>gini = 0.422<br/>samples = 96<br/>value = [67, 29]>, fillcolor="#f0b88f"] ;
837 -> 838 ;
839 [label=<num__glucose &le; 69.5<br/>gini = 0.396<br/>samples = 92<br/>value = [67, 25]>, fillcolor="#efb083"] ;
838 -> 839 ;
840 [label=<num__age &le; 49.5<br/>gini = 0.095<br/>samples = 20<br/>value = [19, 1]>, fillcolor="#e68843"] ;
839 -> 840 ;
841 [label=<num__cigsPerDay &le; 14.5<br/>gini = 0.5<br/>samples = 2<br/>value = [1, 1]>, fillcolor="#ffffff"] ;
840 -> 841 ;
842 [label=<gini = 0.0<br/>samples = 1<br/>value = [0, 1]>, fillcolor="#399de5"] ;
841 -> 842 ;
843 [label=<gini = 0.0<br/>samples = 1<br/>value = [1, 0]>, fillcolor="#e58139"] ;
841 -> 843 ;
844 [label=<gini = 0.0<br/>samples = 18<br/>value = [18, 0]>, fillcolor="#e58139"] ;
840 -> 844 ;
845 [label=<num__glucose &le; 70.5<br/>gini = 0.444<br/>samples = 72<br/>value = [48, 24]>, fillcolor="#f2c09c"] ;
839 -> 845 ;
846 [label=<gini = 0.0<br/>samples = 2<br/>value = [0, 2]>, fillcolor="#399de5"] ;
845 -> 846 ;
847 [label=<num__tot cholesterol &le; 262.5<br/>gini = 0.431<br/>samples = 70<br/>value = [48, 22]>, fillcolor="#f1bb94"] ;
845 -> 847 ;
848 [label=<num__Systolic BP &le; 146.25<br/>gini = 0.37<br/>samples = 53<br/>value = [40, 13]>, fillcolor="#edaa79"] ;
847 -> 848 ;
849 [label=<num__age &le; 57.5<br/>gini = 0.444<br/>samples = 6<br/>value = [2, 4]>, fillcolor="#9ccef2"] ;
848 -> 849 ;
850 [label=<gini = 0.0<br/>samples = 2<br/>value = [2, 0]>, fillcolor="#e58139"] ;
849 -> 850 ;
851 [label=<gini = 0.0<br/>samples = 4<br/>value = [0, 4]>, fillcolor="#399de5"] ;
849 -> 851 ;
852 [label=<num__BMI &le; 28.62<br/>gini = 0.31<br/>samples = 47<br/>value = [38, 9]>, fillcolor="#eb9f68"] ;
848 -> 852 ;
853 [label=<num__diabetes &le; 0.5<br/>gini = 0.157<br/>samples = 35<br/>value = [32, 3]>, fillcolor="#e78d4c"] ;
852 -> 853 ;
854 [label=<num__tot cholesterol &le; 186.0<br/>gini = 0.111<br/>samples = 34<br/>value = [32, 2]>, fillcolor="#e78945"] ;
853 -> 854 ;
855 [label=<num__glucose &le; 83.5<br/>gini = 0.48<br/>samples = 5<br/>value = [3, 2]>, fillcolor="#f6d5bd"] ;
854 -> 855 ;
856 [label=<num__tot cholesterol &le; 170.0<br/>gini = 0.444<br/>samples = 3<br/>value = [1, 2]>, fillcolor="#9ccef2"] ;
855 -> 856 ;
857 [label=<gini = 0.0<br/>samples = 1<br/>value = [1, 0]>, fillcolor="#e58139"] ;
856 -> 857 ;
858 [label=<gini = 0.0<br/>samples = 2<br/>value = [0, 2]>, fillcolor="#399de5"] ;
856 -> 858 ;
859 [label=<gini = 0.0<br/>samples = 2<br/>value = [2, 0]>, fillcolor="#e58139"] ;
855 -> 859 ;
860 [label=<gini = 0.0<br/>samples = 29<br/>value = [29, 0]>, fillcolor="#e58139"] ;
854 -> 860 ;
861 [label=<gini = 0.0<br/>samples = 1<br/>value = [0, 1]>, fillcolor="#399de5"] ;
853 -> 861 ;
862 [label=<num__Systolic BP &le; 159.5<br/>gini = 0.5<br/>samples = 12<br/>value = [6, 6]>, fillcolor="#ffffff"] ;
852 -> 862 ;
863 [label=<num__tot cholesterol &le; 225.5<br/>gini = 0.48<br/>samples = 10<br/>value = [4, 6]>, fillcolor="#bddef6"] ;
862 -> 863 ;
864 [label=<gini = 0.0<br/>samples = 4<br/>value = [0, 4]>, fillcolor="#399de5"] ;
863 -> 864 ;
865 [label=<num__Systolic BP &le; 155.75<br/>gini = 0.444<br/>samples = 6<br/>value = [4, 2]>, fillcolor="#f2c09c"] ;
863 -> 865 ;
866 [label=<gini = 0.0<br/>samples = 3<br/>value = [3, 0]>, fillcolor="#e58139"] ;
865 -> 866 ;
867 [label=<num__cigsPerDay &le; 2.5<br/>gini = 0.444<br/>samples = 3<br/>value = [1, 2]>, fillcolor="#9ccef2"] ;
865 -> 867 ;
868 [label=<gini = 0.0<br/>samples = 2<br/>value = [0, 2]>, fillcolor="#399de5"] ;
867 -> 868 ;
869 [label=<gini = 0.0<br/>samples = 1<br/>value = [1, 0]>, fillcolor="#e58139"] ;
867 -> 869 ;
870 [label=<gini = 0.0<br/>samples = 2<br/>value = [2, 0]>, fillcolor="#e58139"] ;
862 -> 870 ;
871 [label=<num__tot cholesterol &le; 289.0<br/>gini = 0.498<br/>samples = 17<br/>value = [8, 9]>, fillcolor="#e9f4fc"] ;
847 -> 871 ;
872 [label=<num__age &le; 55.0<br/>gini = 0.444<br/>samples = 12<br/>value = [4, 8]>, fillcolor="#9ccef2"] ;
871 -> 872 ;
873 [label=<gini = 0.0<br/>samples = 4<br/>value = [0, 4]>, fillcolor="#399de5"] ;
872 -> 873 ;
874 [label=<num__BMI &le; 26.555<br/>gini = 0.5<br/>samples = 8<br/>value = [4, 4]>, fillcolor="#ffffff"] ;
872 -> 874 ;
875 [label=<gini = 0.0<br/>samples = 3<br/>value = [0, 3]>, fillcolor="#399de5"] ;
874 -> 875 ;
876 [label=<num__prevalentStroke &le; 0.5<br/>gini = 0.32<br/>samples = 5<br/>value = [4, 1]>, fillcolor="#eca06a"] ;
874 -> 876 ;
877 [label=<gini = 0.0<br/>samples = 4<br/>value = [4, 0]>, fillcolor="#e58139"] ;
876 -> 877 ;
878 [label=<gini = 0.0<br/>samples = 1<br/>value = [0, 1]>, fillcolor="#399de5"] ;
876 -> 878 ;
879 [label=<num__Diastolic BP &le; 91.0<br/>gini = 0.32<br/>samples = 5<br/>value = [4, 1]>, fillcolor="#eca06a"] ;
871 -> 879 ;
880 [label=<gini = 0.0<br/>samples = 1<br/>value = [0, 1]>, fillcolor="#399de5"] ;
879 -> 880 ;
881 [label=<gini = 0.0<br/>samples = 4<br/>value = [4, 0]>, fillcolor="#e58139"] ;
879 -> 881 ;
882 [label=<gini = 0.0<br/>samples = 4<br/>value = [0, 4]>, fillcolor="#399de5"] ;
838 -> 882 ;
883 [label=<num__age &le; 52.5<br/>gini = 0.498<br/>samples = 71<br/>value = [33, 38]>, fillcolor="#e5f2fc"] ;
837 -> 883 ;
884 [label=<num__heartRate &le; 64.0<br/>gini = 0.278<br/>samples = 12<br/>value = [2, 10]>, fillcolor="#61b1ea"] ;
883 -> 884 ;
885 [label=<gini = 0.0<br/>samples = 1<br/>value = [1, 0]>, fillcolor="#e58139"] ;
884 -> 885 ;
886 [label=<num__tot cholesterol &le; 305.0<br/>gini = 0.165<br/>samples = 11<br/>value = [1, 10]>, fillcolor="#4da7e8"] ;
884 -> 886 ;
887 [label=<gini = 0.0<br/>samples = 10<br/>value = [0, 10]>, fillcolor="#399de5"] ;
886 -> 887 ;
